{"learner":{"attributes":{"scikit_learn":"{\"_estimator_type\": \"regressor\"}"},"feature_names":["yield_lag_1","yield_lag_2","yield_lag_3","yield_rolling_3y","yield_rolling_5y","yield_mt_ha_yoy_pct","area_ha","area_lag_1","area_ha_yoy_pct","avg_temp_max_c","avg_temp_min_c","total_precip_mm","avg_et0_mm","growing_season_temp_max_c","growing_season_precip_mm","avg_temp_max_c_anomaly","total_precip_mm_anomaly","growing_season_temp_max_c_anomaly","growing_season_precip_mm_anomaly","years_since_2000","crop_year_rank","country_encoded"],"feature_types":["float","float","float","float","float","float","float","float","float","float","float","float","float","float","float","float","float","float","float","int","float","int"],"gradient_booster":{"model":{"cats":{"enc":[],"feature_segments":[],"sorted_idx":[]},"gbtree_model_param":{"num_parallel_tree":"1","num_trees":"457"},"iteration_indptr":[0,1,2,3,4,5,6,7,8,9,10,11,12,13,14,15,16,17,18,19,20,21,22,23,24,25,26,27,28,29,30,31,32,33,34,35,36,37,38,39,40,41,42,43,44,45,46,47,48,49,50,51,52,53,54,55,56,57,58,59,60,61,62,63,64,65,66,67,68,69,70,71,72,73,74,75,76,77,78,79,80,81,82,83,84,85,86,87,88,89,90,91,92,93,94,95,96,97,98,99,100,101,102,103,104,105,106,107,108,109,110,111,112,113,114,115,116,117,118,119,120,121,122,123,124,125,126,127,128,129,130,131,132,133,134,135,136,137,138,139,140,141,142,143,144,145,146,147,148,149,150,151,152,153,154,155,156,157,158,159,160,161,162,163,164,165,166,167,168,169,170,171,172,173,174,175,176,177,178,179,180,181,182,183,184,185,186,187,188,189,190,191,192,193,194,195,196,197,198,199,200,201,202,203,204,205,206,207,208,209,210,211,212,213,214,215,216,217,218,219,220,221,222,223,224,225,226,227,228,229,230,231,232,233,234,235,236,237,238,239,240,241,242,243,244,245,246,247,248,249,250,251,252,253,254,255,256,257,258,259,260,261,262,263,264,265,266,267,268,269,270,271,272,273,274,275,276,277,278,279,280,281,282,283,284,285,286,287,288,289,290,291,292,293,294,295,296,297,298,299,300,301,302,303,304,305,306,307,308,309,310,311,312,313,314,315,316,317,318,319,320,321,322,323,324,325,326,327,328,329,330,331,332,333,334,335,336,337,338,339,340,341,342,343,344,345,346,347,348,349,350,351,352,353,354,355,356,357,358,359,360,361,362,363,364,365,366,367,368,369,370,371,372,373,374,375,376,377,378,379,380,381,382,383,384,385,386,387,388,389,390,391,392,393,394,395,396,397,398,399,400,401,402,403,404,405,406,407,408,409,410,411,412,413,414,415,416,417,418,419,420,421,422,423,424,425,426,427,428,429,430,431,432,433,434,435,436,437,438,439,440,441,442,443,444,445,446,447,448,449,450,451,452,453,454,455,456,457],"tree_info":[0,0,0,0,0,0,0,0,0,0,0,0,0,0,0,0,0,0,0,0,0,0,0,0,0,0,0,0,0,0,0,0,0,0,0,0,0,0,0,0,0,0,0,0,0,0,0,0,0,0,0,0,0,0,0,0,0,0,0,0,0,0,0,0,0,0,0,0,0,0,0,0,0,0,0,0,0,0,0,0,0,0,0,0,0,0,0,0,0,0,0,0,0,0,0,0,0,0,0,0,0,0,0,0,0,0,0,0,0,0,0,0,0,0,0,0,0,0,0,0,0,0,0,0,0,0,0,0,0,0,0,0,0,0,0,0,0,0,0,0,0,0,0,0,0,0,0,0,0,0,0,0,0,0,0,0,0,0,0,0,0,0,0,0,0,0,0,0,0,0,0,0,0,0,0,0,0,0,0,0,0,0,0,0,0,0,0,0,0,0,0,0,0,0,0,0,0,0,0,0,0,0,0,0,0,0,0,0,0,0,0,0,0,0,0,0,0,0,0,0,0,0,0,0,0,0,0,0,0,0,0,0,0,0,0,0,0,0,0,0,0,0,0,0,0,0,0,0,0,0,0,0,0,0,0,0,0,0,0,0,0,0,0,0,0,0,0,0,0,0,0,0,0,0,0,0,0,0,0,0,0,0,0,0,0,0,0,0,0,0,0,0,0,0,0,0,0,0,0,0,0,0,0,0,0,0,0,0,0,0,0,0,0,0,0,0,0,0,0,0,0,0,0,0,0,0,0,0,0,0,0,0,0,0,0,0,0,0,0,0,0,0,0,0,0,0,0,0,0,0,0,0,0,0,0,0,0,0,0,0,0,0,0,0,0,0,0,0,0,0,0,0,0,0,0,0,0,0,0,0,0,0,0,0,0,0,0,0,0,0,0,0,0,0,0,0,0,0,0,0,0,0,0,0,0,0,0,0,0,0,0,0,0,0,0,0,0,0,0,0,0,0,0,0,0,0,0,0,0,0,0,0,0,0,0,0,0,0,0,0,0,0,0,0,0,0,0,0,0,0,0,0,0,0,0,0,0],"trees":[{"base_weights":[-5.2238894E-1,-1.25348595E2,1.4548883E2,-2.3916132E2,-6.7031136E1,9.832719E1,2.6489685E2,-5.9938455E0,-4.0897274E0,-1.1301578E0,-5.622663E0,1.4098927E0,2.763092E0,4.714557E0,6.5694203E0],"categories":[],"categories_nodes":[],"categories_segments":[],"categories_sizes":[],"default_left":[0,0,0,0,0,0,0,0,0,0,0,0,0,0,0],"id":0,"left_children":[1,3,5,7,9,11,13,-1,-1,-1,-1,-1,-1,-1,-1],"loss_changes":[2.0960536E6,4.1131162E5,2.9821375E5,4.3891E4,9.468364E4,4.1696938E4,2.7837875E4,0E0,0E0,0E0,0E0,0E0,0E0,0E0,0E0],"parents":[2147483647,0,0,1,1,2,2,3,3,4,4,5,5,6,6],"right_children":[2,4,6,8,10,12,14,-1,-1,-1,-1,-1,-1,-1,-1],"split_conditions":[6.270496E2,4.69352E2,8.101244E2,3.494688E2,3.88E0,7.218254E2,8.853957E2,-5.9938455E0,-4.0897274E0,-1.1301578E0,-5.622663E0,1.4098927E0,2.763092E0,4.714557E0,6.5694203E0],"split_indices":[0,0,0,0,12,0,0,0,0,0,0,0,0,0,0],"split_type":[0,0,0,0,0,0,0,0,0,0,0,0,0,0,0],"sum_hessian":[1.15E2,6.2E1,5.3E1,2.1E1,4.1E1,3.8E1,1.5E1,8E0,1.3E1,3.9E1,2E0,2.2E1,1.6E1,1E1,5E0],"tree_param":{"num_deleted":"0","num_feature":"22","num_nodes":"15","size_leaf_vector":"1"}},{"base_weights":[7.612546E0,-1.1923043E2,1.4910173E2,-2.2248994E2,-5.6102222E1,8.772251E1,2.6498502E2,-5.534222E0,-3.87674E0,-8.7148225E-1,-5.509547E0,1.4605659E0,3.1914487E0,4.506994E0,6.3698483E0],"categories":[],"categories_nodes":[],"categories_segments":[],"categories_sizes":[],"default_left":[0,0,0,0,0,0,0,0,0,0,0,0,0,0,0],"id":1,"left_children":[1,3,5,7,9,11,13,-1,-1,-1,-1,-1,-1,-1,-1],"loss_changes":[1.9742486E6,3.7790212E5,3.6962712E5,3.4134875E4,1.0021994E5,3.6396062E4,3.7589125E4,0E0,0E0,0E0,0E0,0E0,0E0,0E0,0E0],"parents":[2147483647,0,0,1,1,2,2,3,3,4,4,5,5,6,6],"right_children":[2,4,6,8,10,12,14,-1,-1,-1,-1,-1,-1,-1,-1],"split_conditions":[6.270496E2,4.69352E2,8.101244E2,3.494688E2,3.88E0,7.54185E2,8.695661E2,-5.534222E0,-3.87674E0,-8.7148225E-1,-5.509547E0,1.4605659E0,3.1914487E0,4.506994E0,6.3698483E0],"split_indices":[0,0,0,0,12,0,3,0,0,0,0,0,0,0,0],"split_type":[0,0,0,0,0,0,0,0,0,0,0,0,0,0,0],"sum_hessian":[1.1E2,5.8E1,5.2E1,2.2E1,3.6E1,3.4E1,1.8E1,8E0,1.4E1,3.4E1,2E0,2.8E1,6E0,1E1,8E0],"tree_param":{"num_deleted":"0","num_feature":"22","num_nodes":"15","size_leaf_vector":"1"}},{"base_weights":[2.6640475E0,-1.22811386E2,1.2332492E2,-2.3911417E2,-5.7361874E1,8.414288E1,2.5384702E2,-5.7606587E0,-3.8673995E0,-1.4434696E0,1.6272159E0,9.421724E-1,2.3743598E0,4.359599E0,6.160612E0],"categories":[],"categories_nodes":[],"categories_segments":[],"categories_sizes":[],"default_left":[0,0,0,0,0,0,0,0,0,0,0,0,0,0,0],"id":2,"left_children":[1,3,5,7,9,11,13,-1,-1,-1,-1,-1,-1,-1,-1],"loss_changes":[1.5443381E6,3.8041125E5,2.6570288E5,3.93885E4,6.331417E4,5.0345344E4,2.2910125E4,0E0,0E0,0E0,0E0,0E0,0E0,0E0,0E0],"parents":[2147483647,0,0,1,1,2,2,3,3,4,4,5,5,6,6],"right_children":[2,4,6,8,10,12,14,-1,-1,-1,-1,-1,-1,-1,-1],"split_conditions":[6.270496E2,4.429514E2,8.101244E2,3.494688E2,7.51E0,6.779179E2,8.695661E2,-5.7606587E0,-3.8673995E0,-1.4434696E0,1.6272159E0,9.421724E-1,2.3743598E0,4.359599E0,6.160612E0],"split_indices":[0,0,0,0,5,3,3,0,0,0,0,0,0,0,0],"split_type":[0,0,0,0,0,0,0,0,0,0,0,0,0,0,0],"sum_hessian":[1.02E2,5E1,5.2E1,1.8E1,3.2E1,4E1,1.2E1,9E0,9E0,2.9E1,3E0,1.9E1,2.1E1,7E0,5E0],"tree_param":{"num_deleted":"0","num_feature":"22","num_nodes":"15","size_leaf_vector":"1"}},{"base_weights":[-1.1700514E1,-1.1694417E2,1.2510366E2,-2.279569E2,-4.7538605E1,8.047874E1,2.6633008E2,-5.461626E0,-3.6451216E0,-1.127319E0,2.2646382E0,9.687228E-1,2.516101E0,4.469665E0,6.253155E0],"categories":[],"categories_nodes":[],"categories_segments":[],"categories_sizes":[],"default_left":[0,0,0,0,0,0,0,0,0,0,0,0,0,0,0],"id":3,"left_children":[1,3,5,7,9,11,13,-1,-1,-1,-1,-1,-1,-1,-1],"loss_changes":[1.6557968E6,5.0065E5,3.148765E5,5.04095E4,5.400804E4,5.4591156E4,2.3084062E4,0E0,0E0,0E0,0E0,0E0,0E0,0E0,0E0],"parents":[2147483647,0,0,1,1,2,2,3,3,4,4,5,5,6,6],"right_children":[2,4,6,8,10,12,14,-1,-1,-1,-1,-1,-1,-1,-1],"split_conditions":[6.270496E2,4.613033E2,8.101244E2,3.571945E2,1.384E1,6.924221E2,8.853957E2,-5.461626E0,-3.6451216E0,-1.127319E0,2.2646382E0,9.687228E-1,2.516101E0,4.469665E0,6.253155E0],"split_indices":[0,0,0,0,5,1,0,0,0,0,0,0,0,0,0],"split_type":[0,0,0,0,0,0,0,0,0,0,0,0,0,0,0],"sum_hessian":[1.15E2,6.5E1,5E1,2.5E1,4E1,3.8E1,1.2E1,1.3E1,1.2E1,3.8E1,2E0,2.2E1,1.6E1,6E0,6E0],"tree_param":{"num_deleted":"0","num_feature":"22","num_nodes":"15","size_leaf_vector":"1"}},{"base_weights":[-1.0693349E1,-1.3307646E2,1.2916231E2,-2.271325E2,-6.8698296E1,8.198688E1,2.4703918E2,-5.4916387E0,-3.7858193E0,-5.3469896E0,-1.1626182E0,1.42894E0,3.645181E0,4.452089E0,5.8422775E0],"categories":[],"categories_nodes":[],"categories_segments":[],"categories_sizes":[],"default_left":[0,0,0,0,0,0,0,0,0,0,0,0,0,0,0],"id":4,"left_children":[1,3,5,7,9,11,13,-1,-1,-1,-1,-1,-1,-1,-1],"loss_changes":[2.0539868E6,3.8733675E5,3.1118694E5,4.6000875E4,8.1793484E4,4.3512656E4,1.7463938E4,0E0,0E0,0E0,0E0,0E0,0E0,0E0,0E0],"parents":[2147483647,0,0,1,1,2,2,3,3,4,4,5,5,6,6],"right_children":[2,4,6,8,10,12,14,-1,-1,-1,-1,-1,-1,-1,-1],"split_conditions":[6.270496E2,4.69352E2,8.101244E2,3.45812E2,1.1216E3,7.63E0,8.946153E2,-5.4916387E0,-3.7858193E0,-5.3469896E0,-1.1626182E0,1.42894E0,3.645181E0,4.452089E0,5.8422775E0],"split_indices":[0,0,0,0,6,5,0,0,0,0,0,0,0,0,0],"split_type":[0,0,0,0,0,0,0,0,0,0,0,0,0,0,0],"sum_hessian":[1.2E2,6.4E1,5.6E1,2.6E1,3.8E1,4E1,1.6E1,1.2E1,1.4E1,2E0,3.6E1,3.6E1,4E0,1E1,6E0],"tree_param":{"num_deleted":"0","num_feature":"22","num_nodes":"15","size_leaf_vector":"1"}},{"base_weights":[-8.419647E0,-1.1512631E2,1.3726349E2,-6.7104416E1,-2.2941893E2,7.729187E1,2.5048943E2,-4.7365775E0,-1.0565124E0,-5.306276E0,-3.502225E0,6.770822E-1,2.249981E0,4.3093963E0,5.776756E0],"categories":[],"categories_nodes":[],"categories_segments":[],"categories_sizes":[],"default_left":[0,0,0,0,0,0,0,0,0,0,0,0,0,0,0],"id":5,"left_children":[1,3,5,7,9,11,13,-1,-1,-1,-1,-1,-1,-1,-1],"loss_changes":[1.9121289E6,3.8949262E5,3.528797E5,1.22864484E5,3.9379125E4,5.104147E4,2.3478E4,0E0,0E0,0E0,0E0,0E0,0E0,0E0,0E0],"parents":[2147483647,0,0,1,1,2,2,3,3,4,4,5,5,6,6],"right_children":[2,4,6,8,10,12,14,-1,-1,-1,-1,-1,-1,-1,-1],"split_conditions":[6.366534E2,3.94E0,7.99123E2,3.652712E2,1.2E1,6.779179E2,8.695661E2,-4.7365775E0,-1.0565124E0,-5.306276E0,-3.502225E0,6.770822E-1,2.249981E0,4.3093963E0,5.776756E0],"split_indices":[3,12,3,3,19,3,3,0,0,0,0,0,0,0,0],"split_type":[0,0,0,0,0,0,0,0,0,0,0,0,0,0,0],"sum_hessian":[1.23E2,7.1E1,5.2E1,5E1,2.1E1,3.4E1,1.8E1,4E0,4.6E1,1.3E1,8E0,1.5E1,1.9E1,9E0,9E0],"tree_param":{"num_deleted":"0","num_feature":"22","num_nodes":"15","size_leaf_vector":"1"}},{"base_weights":[2.5518408E0,-1.0181808E2,1.3558266E2,-2.1357832E2,-4.845732E1,8.509393E1,2.5668896E2,-4.9323473E0,-3.456949E0,-6.0196314E0,-7.350835E-1,-5.173317E-1,2.0738206E0,4.2216043E0,5.9954896E0],"categories":[],"categories_nodes":[],"categories_segments":[],"categories_sizes":[],"default_left":[0,0,0,0,0,0,0,0,0,0,0,0,0,0,0],"id":6,"left_children":[1,3,5,7,9,11,13,-1,-1,-1,-1,-1,-1,-1,-1],"loss_changes":[1.6106671E6,3.874717E5,3.11607E5,2.7268938E4,1.315315E5,7.139517E4,2.8542812E4,0E0,0E0,0E0,0E0,0E0,0E0,0E0,0E0],"parents":[2147483647,0,0,1,1,2,2,3,3,4,4,5,5,6,6],"right_children":[2,4,6,8,10,12,14,-1,-1,-1,-1,-1,-1,-1,-1],"split_conditions":[4E0,4.173894E2,7.753284E2,3.590195E2,7.958E2,2E0,2.936E1,-4.9323473E0,-3.456949E0,-6.0196314E0,-7.350835E-1,-5.173317E-1,2.0738206E0,4.2216043E0,5.9954896E0],"split_indices":[21,4,4,4,6,20,13,0,0,0,0,0,0,0,0],"split_type":[0,0,0,0,0,0,0,0,0,0,0,0,0,0,0],"sum_hessian":[1.16E2,6.5E1,5.1E1,2.1E1,4.4E1,3.6E1,1.5E1,1.2E1,9E0,2E0,4.2E1,5E0,3.1E1,7E0,8E0],"tree_param":{"num_deleted":"0","num_feature":"22","num_nodes":"15","size_leaf_vector":"1"}},{"base_weights":[7.302949E0,-9.657614E1,1.366325E2,-2.1316385E2,-4.7750683E1,7.959945E1,2.3480374E2,-4.964455E0,-3.2341237E0,2.782091E-1,-1.6261661E0,1.2580104E0,3.0373461E0,3.5919936E0,5.2949524E0],"categories":[],"categories_nodes":[],"categories_segments":[],"categories_sizes":[],"default_left":[0,0,0,0,0,0,0,0,0,0,0,0,0,0,0],"id":7,"left_children":[1,3,5,7,9,11,13,-1,-1,-1,-1,-1,-1,-1,-1],"loss_changes":[1.4778868E6,3.4707675E5,2.7414006E5,3.1249312E4,8.741169E4,3.7680984E4,2.8226938E4,0E0,0E0,0E0,0E0,0E0,0E0,0E0,0E0],"parents":[2147483647,0,0,1,1,2,2,3,3,4,4,5,5,6,6],"right_children":[2,4,6,8,10,12,14,-1,-1,-1,-1,-1,-1,-1,-1],"split_conditions":[4E0,4.69352E2,8.101244E2,3.72346E2,2.285E1,4.34E0,6.2973E3,-4.964455E0,-3.2341237E0,2.782091E-1,-1.6261661E0,1.2580104E0,3.0373461E0,3.5919936E0,5.2949524E0],"split_indices":[21,0,0,0,9,5,6,0,0,0,0,0,0,0,0],"split_type":[0,0,0,0,0,0,0,0,0,0,0,0,0,0,0],"sum_hessian":[1.1E2,6.1E1,4.9E1,1.8E1,4.3E1,3.1E1,1.8E1,1.1E1,7E0,1.5E1,2.8E1,2.5E1,6E0,6E0,1.2E1],"tree_param":{"num_deleted":"0","num_feature":"22","num_nodes":"15","size_leaf_vector":"1"}},{"base_weights":[-5.5788215E-2,-1.1980486E2,1.3251257E2,-2.0910876E2,-5.5283237E1,8.503678E1,2.3268604E2,-4.9787745E0,-3.5514078E0,-1.3298588E0,1.2644398E0,1.1609097E0,2.3244154E0,4.0067387E0,5.531874E0],"categories":[],"categories_nodes":[],"categories_segments":[],"categories_sizes":[],"default_left":[0,0,0,0,0,0,0,0,0,0,0,0,0,0,0],"id":8,"left_children":[1,3,5,7,9,11,13,-1,-1,-1,-1,-1,-1,-1,-1],"loss_changes":[1.8732982E6,3.5707888E5,2.6610862E5,3.2134375E4,4.572758E4,3.1514031E4,2.5116375E4,0E0,0E0,0E0,0E0,0E0,0E0,0E0,0E0],"parents":[2147483647,0,0,1,1,2,2,3,3,4,4,5,5,6,6],"right_children":[2,4,6,8,10,12,14,-1,-1,-1,-1,-1,-1,-1,-1],"split_conditions":[6.270496E2,4.69352E2,8.101244E2,3.494688E2,7.1E-2,6.924221E2,8.77269E2,-4.9787745E0,-3.5514078E0,-1.3298588E0,1.2644398E0,1.1609097E0,2.3244154E0,4.0067387E0,5.531874E0],"split_indices":[0,0,0,0,16,1,1,0,0,0,0,0,0,0,0],"split_type":[0,0,0,0,0,0,0,0,0,0,0,0,0,0,0],"sum_hessian":[1.18E2,6.2E1,5.6E1,2.6E1,3.6E1,3.8E1,1.8E1,1.2E1,1.4E1,3.3E1,3E0,2E1,1.8E1,1E1,8E0],"tree_param":{"num_deleted":"0","num_feature":"22","num_nodes":"15","size_leaf_vector":"1"}},{"base_weights":[-5.3609934E0,-1.07937805E2,1.2189861E2,-2.0244676E2,-5.166152E1,7.2528275E1,2.3909276E2,-5.125911E0,-3.3760505E0,-8.3869773E-1,-5.0625544E0,8.7215096E-1,2.0481837E0,4.1348696E0,5.3412666E0],"categories":[],"categories_nodes":[],"categories_segments":[],"categories_sizes":[],"default_left":[0,0,0,0,0,0,0,0,0,0,0,0,0,0,0],"id":9,"left_children":[1,3,5,7,9,11,13,-1,-1,-1,-1,-1,-1,-1,-1],"loss_changes":[1.5795639E6,3.561872E5,3.1223275E5,4.4991688E4,8.381214E4,3.2307172E4,1.37395E4,0E0,0E0,0E0,0E0,0E0,0E0,0E0,0E0],"parents":[2147483647,0,0,1,1,2,2,3,3,4,4,5,5,6,6],"right_children":[2,4,6,8,10,12,14,-1,-1,-1,-1,-1,-1,-1,-1],"split_conditions":[6.270496E2,4.69352E2,8.101244E2,3.494688E2,1.229E1,6.962905E2,8.495635E2,-5.125911E0,-3.3760505E0,-8.3869773E-1,-5.0625544E0,8.7215096E-1,2.0481837E0,4.1348696E0,5.3412666E0],"split_indices":[0,0,0,0,10,0,1,0,0,0,0,0,0,0,0],"split_type":[0,0,0,0,0,0,0,0,0,0,0,0,0,0,0],"sum_hessian":[1.21E2,6.7E1,5.4E1,2.5E1,4.2E1,3.8E1,1.6E1,1E1,1.5E1,4E1,2E0,1.9E1,1.9E1,7E0,9E0],"tree_param":{"num_deleted":"0","num_feature":"22","num_nodes":"15","size_leaf_vector":"1"}},{"base_weights":[6.23928E-1,-1.00670334E2,1.2544259E2,-1.9344229E2,-5.426519E1,7.0353386E1,2.1721452E2,-4.703896E0,-3.1528091E0,-9.164777E-1,-4.960707E0,9.329647E-1,2.2343063E0,3.619879E0,5.3776464E0],"categories":[],"categories_nodes":[],"categories_segments":[],"categories_sizes":[],"default_left":[0,0,0,0,0,0,0,0,0,0,0,0,0,0,0],"id":10,"left_children":[1,3,5,7,9,11,13,-1,-1,-1,-1,-1,-1,-1,-1],"loss_changes":[1.5804916E6,2.9689338E5,2.8292625E5,3.3752E4,7.716069E4,3.403564E4,3.884175E4,0E0,0E0,0E0,0E0,0E0,0E0,0E0,0E0],"parents":[2147483647,0,0,1,1,2,2,3,3,4,4,5,5,6,6],"right_children":[2,4,6,8,10,12,14,-1,-1,-1,-1,-1,-1,-1,-1],"split_conditions":[6.270496E2,4.69352E2,7.595052E2,3.571945E2,1.229E1,6.962905E2,8.695661E2,-4.703896E0,-3.1528091E0,-9.164777E-1,-4.960707E0,9.329647E-1,2.2343063E0,3.619879E0,5.3776464E0],"split_indices":[0,0,3,0,10,1,3,0,0,0,0,0,0,0,0],"split_type":[0,0,0,0,0,0,0,0,0,0,0,0,0,0,0],"sum_hessian":[1.25E2,6.9E1,5.6E1,2.3E1,4.6E1,3.5E1,2.1E1,1.1E1,1.2E1,4.4E1,2E0,2.2E1,1.3E1,1.2E1,9E0],"tree_param":{"num_deleted":"0","num_feature":"22","num_nodes":"15","size_leaf_vector":"1"}},{"base_weights":[1.350401E0,-9.512964E1,1.12684235E2,4.971343E1,-1.2765815E2,6.459776E1,2.2082048E2,-8.988671E-4,2.2054286E0,-3.997746E0,-1.8120822E0,8.9603615E-1,2.2194858E0,4.0930533E0,5.9721637E0],"categories":[],"categories_nodes":[],"categories_segments":[],"categories_sizes":[],"default_left":[0,0,0,0,0,0,0,0,0,0,0,0,0,0,0],"id":11,"left_children":[1,3,5,7,9,11,13,-1,-1,-1,-1,-1,-1,-1,-1],"loss_changes":[1.2031001E6,2.8275962E5,2.7020812E5,3.280333E4,1.3061194E5,3.2913656E4,2.0878875E4,0E0,0E0,0E0,0E0,0E0,0E0,0E0,0E0],"parents":[2147483647,0,0,1,1,2,2,3,3,4,4,5,5,6,6],"right_children":[2,4,6,8,10,12,14,-1,-1,-1,-1,-1,-1,-1,-1],"split_conditions":[6.366534E2,1.221E1,7.99123E2,3.72E0,5.53E2,7.23648E2,1.248E1,-8.988671E-4,2.2054286E0,-3.997746E0,-1.8120822E0,8.9603615E-1,2.2194858E0,4.0930533E0,5.9721637E0],"split_indices":[3,10,3,12,11,3,10,0,0,0,0,0,0,0,0],"split_type":[0,0,0,0,0,0,0,0,0,0,0,0,0,0,0],"sum_hessian":[1.12E2,6E1,5.2E1,1.1E1,4.9E1,3.6E1,1.6E1,6E0,5E0,1.7E1,3.2E1,2.5E1,1.1E1,1.3E1,3E0],"tree_param":{"num_deleted":"0","num_feature":"22","num_nodes":"15","size_leaf_vector":"1"}},{"base_weights":[1.735944E0,-1.03781E2,1.16684166E2,-1.8814757E2,-5.6167324E1,6.7161125E1,2.1307564E2,-4.6180806E0,-2.9578915E0,-4.780484E0,-9.332514E-1,1.1535474E0,3.6007593E0,3.546003E0,5.312427E0],"categories":[],"categories_nodes":[],"categories_segments":[],"categories_sizes":[],"default_left":[0,0,0,0,0,0,0,0,0,0,0,0,0,0,0],"id":12,"left_children":[1,3,5,7,9,11,13,-1,-1,-1,-1,-1,-1,-1,-1],"loss_changes":[1.4191469E6,2.4488019E5,2.6713756E5,3.7096188E4,6.92467E4,4.064867E4,3.5303125E4,0E0,0E0,0E0,0E0,0E0,0E0,0E0,0E0],"parents":[2147483647,0,0,1,1,2,2,3,3,4,4,5,5,6,6],"right_children":[2,4,6,8,10,12,14,-1,-1,-1,-1,-1,-1,-1,-1],"split_conditions":[6.270496E2,4.69352E2,7.595052E2,3.571945E2,5.53E2,7.63E0,8.695661E2,-4.6180806E0,-2.9578915E0,-4.780484E0,-9.332514E-1,1.1535474E0,3.6007593E0,3.546003E0,5.312427E0],"split_indices":[0,0,3,0,11,5,3,0,0,0,0,0,0,0,0],"split_type":[0,0,0,0,0,0,0,0,0,0,0,0,0,0,0],"sum_hessian":[1.17E2,6.1E1,5.6E1,2.2E1,3.9E1,3.7E1,1.9E1,1.1E1,1.1E1,2E0,3.7E1,3.4E1,3E0,1.1E1,8E0],"tree_param":{"num_deleted":"0","num_feature":"22","num_nodes":"15","size_leaf_vector":"1"}},{"base_weights":[-7.7326727E0,-9.703089E1,1.0655658E2,-1.9203809E2,-5.06116E1,7.2561E1,2.0324202E2,-4.7440715E0,-3.0682788E0,-8.3990973E-1,-4.684312E0,1.0154505E0,2.1924467E0,3.8582466E0,4.867773E0],"categories":[],"categories_nodes":[],"categories_segments":[],"categories_sizes":[],"default_left":[0,0,0,0,0,0,0,0,0,0,0,0,0,0,0],"id":13,"left_children":[1,3,5,7,9,11,13,-1,-1,-1,-1,-1,-1,-1,-1],"loss_changes":[1.1634996E6,2.820972E5,1.6415862E5,3.5981E4,6.95008E4,2.9636812E4,5.481125E3,0E0,0E0,0E0,0E0,0E0,0E0,0E0,0E0],"parents":[2147483647,0,0,1,1,2,2,3,3,4,4,5,5,6,6],"right_children":[2,4,6,8,10,12,14,-1,-1,-1,-1,-1,-1,-1,-1],"split_conditions":[6.270496E2,4.69352E2,7.909174E2,3.494688E2,1.229E1,7.218254E2,-1.49E-1,-4.7440715E0,-3.0682788E0,-8.3990973E-1,-4.684312E0,1.0154505E0,2.1924467E0,3.8582466E0,4.867773E0],"split_indices":[0,0,0,0,10,0,16,0,0,0,0,0,0,0,0],"split_type":[0,0,0,0,0,0,0,0,0,0,0,0,0,0,0],"sum_hessian":[1.14E2,6.4E1,5E1,2.1E1,4.3E1,3.7E1,1.3E1,1E1,1.1E1,4.1E1,2E0,2.3E1,1.4E1,1E1,3E0],"tree_param":{"num_deleted":"0","num_feature":"22","num_nodes":"15","size_leaf_vector":"1"}},{"base_weights":[-1.2860282E1,-1.0696841E2,1.0476313E2,-1.8430864E2,-5.199386E1,6.615012E1,1.9994789E2,-4.567781E0,-3.025278E0,-1.2326684E0,2.2862668E0,1.0637864E0,3.0459352E0,3.439881E0,4.9030194E0],"categories":[],"categories_nodes":[],"categories_segments":[],"categories_sizes":[],"default_left":[0,0,0,0,0,0,0,0,0,0,0,0,0,0,0],"id":14,"left_children":[1,3,5,7,9,11,13,-1,-1,-1,-1,-1,-1,-1,-1],"loss_changes":[1.2951559E6,2.7621362E5,1.909435E5,3.8835688E4,5.7966758E4,4.1823812E4,1.8694688E4,0E0,0E0,0E0,0E0,0E0,0E0,0E0,0E0],"parents":[2147483647,0,0,1,1,2,2,3,3,4,4,5,5,6,6],"right_children":[2,4,6,8,10,12,14,-1,-1,-1,-1,-1,-1,-1,-1],"split_conditions":[6.270496E2,4.69352E2,8.101244E2,3.494688E2,1.384E1,7.63E0,8.946153E2,-4.567781E0,-3.025278E0,-1.2326684E0,2.2862668E0,1.0637864E0,3.0459352E0,3.439881E0,4.9030194E0],"split_indices":[0,0,0,0,5,5,0,0,0,0,0,0,0,0,0],"split_type":[0,0,0,0,0,0,0,0,0,0,0,0,0,0,0],"sum_hessian":[1.17E2,6.5E1,5.2E1,2.7E1,3.8E1,3.7E1,1.5E1,1.2E1,1.5E1,3.6E1,2E0,3.2E1,5E0,9E0,6E0],"tree_param":{"num_deleted":"0","num_feature":"22","num_nodes":"15","size_leaf_vector":"1"}},{"base_weights":[-2.0384793E0,-9.745049E1,1.1354482E2,-1.8156087E2,-4.5668545E1,7.019309E1,2.0274509E2,-4.5200076E0,-2.9238424E0,-7.2204584E-1,-4.5652757E0,7.386097E-1,2.050145E0,3.4722767E0,4.9521174E0],"categories":[],"categories_nodes":[],"categories_segments":[],"categories_sizes":[],"default_left":[0,0,0,0,0,0,0,0,0,0,0,0,0,0,0],"id":15,"left_children":[1,3,5,7,9,11,13,-1,-1,-1,-1,-1,-1,-1,-1],"loss_changes":[1.2682586E6,2.742485E5,2.0090181E5,3.7160125E4,6.911702E4,3.6996156E4,2.1920938E4,0E0,0E0,0E0,0E0,0E0,0E0,0E0,0E0],"parents":[2147483647,0,0,1,1,2,2,3,3,4,4,5,5,6,6],"right_children":[2,4,6,8,10,12,14,-1,-1,-1,-1,-1,-1,-1,-1],"split_conditions":[6.270496E2,4.69352E2,8.101244E2,3.494688E2,1.229E1,6.779179E2,8.695661E2,-4.5200076E0,-2.9238424E0,-7.2204584E-1,-4.5652757E0,7.386097E-1,2.050145E0,3.4722767E0,4.9521174E0],"split_indices":[0,0,0,0,10,3,3,0,0,0,0,0,0,0,0],"split_type":[0,0,0,0,0,0,0,0,0,0,0,0,0,0,0],"sum_hessian":[1.15E2,6.3E1,5.2E1,2.4E1,3.9E1,3.5E1,1.7E1,1.1E1,1.3E1,3.7E1,2E0,1.7E1,1.8E1,1E1,7E0],"tree_param":{"num_deleted":"0","num_feature":"22","num_nodes":"15","size_leaf_vector":"1"}},{"base_weights":[3.9704064E-1,-1.0334124E2,1.1001818E2,-1.7080138E2,-5.2720253E1,6.832359E1,2.0637961E2,-4.043374E0,-2.834177E0,-1.3436322E0,1.6591285E0,1.1296024E0,2.9486318E0,3.2734475E0,4.5554466E0],"categories":[],"categories_nodes":[],"categories_segments":[],"categories_sizes":[],"default_left":[0,0,0,0,0,0,0,0,0,0,0,0,0,0,0],"id":16,"left_children":[1,3,5,7,9,11,13,-1,-1,-1,-1,-1,-1,-1,-1],"loss_changes":[1.2395872E6,1.910915E5,2.1275888E5,2.137775E4,6.0542305E4,3.5206516E4,1.360825E4,0E0,0E0,0E0,0E0,0E0,0E0,0E0,0E0],"parents":[2147483647,0,0,1,1,2,2,3,3,4,4,5,5,6,6],"right_children":[2,4,6,8,10,12,14,-1,-1,-1,-1,-1,-1,-1,-1],"split_conditions":[6.270496E2,4.69352E2,8.101244E2,3.571945E2,1.022E1,7.63E0,8.325926E2,-4.043374E0,-2.834177E0,-1.3436322E0,1.6591285E0,1.1296024E0,2.9486318E0,3.2734475E0,4.5554466E0],"split_indices":[0,0,0,0,5,5,1,0,0,0,0,0,0,0,0],"split_type":[0,0,0,0,0,0,0,0,0,0,0,0,0,0,0],"sum_hessian":[1.09E2,5.6E1,5.3E1,2.4E1,3.2E1,3.7E1,1.6E1,1.2E1,1.2E1,2.9E1,3E0,3.2E1,5E0,5E0,1.1E1],"tree_param":{"num_deleted":"0","num_feature":"22","num_nodes":"15","size_leaf_vector":"1"}},{"base_weights":[2.9210958E0,-7.630496E1,1.1021737E2,-1.7291483E2,-3.3348408E1,7.8483246E1,1.95585E2,-4.232768E0,-2.9800723E0,4.598706E-1,-1.3589103E0,1.3035246E0,2.91622E0,3.367696E0,4.60143E0],"categories":[],"categories_nodes":[],"categories_segments":[],"categories_sizes":[],"default_left":[0,0,0,0,0,0,0,0,0,0,0,0,0,0,0],"id":17,"left_children":[1,3,5,7,9,11,13,-1,-1,-1,-1,-1,-1,-1,-1],"loss_changes":[9.6062825E5,2.6962697E5,1.29848625E5,1.8315062E4,8.633034E4,3.1787812E4,1.1823531E4,0E0,0E0,0E0,0E0,0E0,0E0,0E0,0E0],"parents":[2147483647,0,0,1,1,2,2,3,3,4,4,5,5,6,6],"right_children":[2,4,6,8,10,12,14,-1,-1,-1,-1,-1,-1,-1,-1],"split_conditions":[4E0,4.69352E2,8.101244E2,3.45812E2,1E0,7.32E0,1.83E0,-4.232768E0,-2.9800723E0,4.598706E-1,-1.3589103E0,1.3035246E0,2.91622E0,3.367696E0,4.60143E0],"split_indices":[21,0,0,0,21,5,5,0,0,0,0,0,0,0,0],"split_type":[0,0,0,0,0,0,0,0,0,0,0,0,0,0,0],"sum_hessian":[1.13E2,6.5E1,4.8E1,2E1,4.5E1,3.5E1,1.3E1,8E0,1.2E1,1.7E1,2.8E1,2.9E1,6E0,7E0,6E0],"tree_param":{"num_deleted":"0","num_feature":"22","num_nodes":"15","size_leaf_vector":"1"}},{"base_weights":[1.2042172E1,-7.9124245E1,1.08102425E2,-1.6189157E2,-3.336282E1,6.192209E1,1.9118314E2,-4.0654383E0,-2.654589E0,8.972129E-1,-1.0265745E0,7.426632E-1,1.809759E0,3.157259E0,4.5407844E0],"categories":[],"categories_nodes":[],"categories_segments":[],"categories_sizes":[],"default_left":[0,0,0,0,0,0,0,0,0,0,0,0,0,0,0],"id":18,"left_children":[1,3,5,7,9,11,13,-1,-1,-1,-1,-1,-1,-1,-1],"loss_changes":[1.00716044E6,2.2334731E5,2.1468988E5,2.5005312E4,5.216551E4,2.5115531E4,2.330725E4,0E0,0E0,0E0,0E0,0E0,0E0,0E0,0E0],"parents":[2147483647,0,0,1,1,2,2,3,3,4,4,5,5,6,6],"right_children":[2,4,6,8,10,12,14,-1,-1,-1,-1,-1,-1,-1,-1],"split_conditions":[6.270496E2,4.711411E2,8.101244E2,3.571945E2,1.204E1,6.938743E2,8.695661E2,-4.0654383E0,-2.654589E0,8.972129E-1,-1.0265745E0,7.426632E-1,1.809759E0,3.157259E0,4.5407844E0],"split_indices":[0,0,0,0,10,3,3,0,0,0,0,0,0,0,0],"split_type":[0,0,0,0,0,0,0,0,0,0,0,0,0,0,0],"sum_hessian":[1.15E2,5.9E1,5.6E1,2.1E1,3.8E1,3.6E1,2E1,9E0,1.2E1,7E0,3.1E1,1.9E1,1.7E1,1E1,1E1],"tree_param":{"num_deleted":"0","num_feature":"22","num_nodes":"15","size_leaf_vector":"1"}},{"base_weights":[9.304355E0,-8.012781E1,1.02059265E2,-1.7830249E2,-3.73117E1,6.0270447E1,1.8558827E2,-5.0965223E0,-3.2663891E0,-5.522407E-1,-4.425194E0,1.0294079E0,3.2350674E0,2.9612415E0,4.5112734E0],"categories":[],"categories_nodes":[],"categories_segments":[],"categories_sizes":[],"default_left":[0,0,0,0,0,0,0,0,0,0,0,0,0,0,0],"id":19,"left_children":[1,3,5,7,9,11,13,-1,-1,-1,-1,-1,-1,-1,-1],"loss_changes":[9.125256E5,2.3526172E5,1.8833112E5,2.014375E4,7.020237E4,3.293243E4,2.6379438E4,0E0,0E0,0E0,0E0,0E0,0E0,0E0,0E0],"parents":[2147483647,0,0,1,1,2,2,3,3,4,4,5,5,6,6],"right_children":[2,4,6,8,10,12,14,-1,-1,-1,-1,-1,-1,-1,-1],"split_conditions":[6.270496E2,4.69352E2,7.909174E2,3.238527E2,3.88E0,7.63E0,8.853957E2,-5.0965223E0,-3.2663891E0,-5.522407E-1,-4.425194E0,1.0294079E0,3.2350674E0,2.9612415E0,4.5112734E0],"split_indices":[0,0,0,0,12,5,0,0,0,0,0,0,0,0,0],"split_type":[0,0,0,0,0,0,0,0,0,0,0,0,0,0,0],"sum_hessian":[1.1E2,5.6E1,5.4E1,1.7E1,3.9E1,3.6E1,1.8E1,3E0,1.4E1,3.7E1,2E0,3.3E1,3E0,9E0,9E0],"tree_param":{"num_deleted":"0","num_feature":"22","num_nodes":"15","size_leaf_vector":"1"}},{"base_weights":[-2.323421E0,-8.908875E1,9.547374E1,-1.5800423E2,-4.554169E1,5.7355904E1,1.8833047E2,-3.769847E0,-2.4853082E0,-5.9411234E-1,-3.0454152E0,9.9080724E-1,2.5876973E0,3.06075E0,4.5219264E0],"categories":[],"categories_nodes":[],"categories_segments":[],"categories_sizes":[],"default_left":[0,0,0,0,0,0,0,0,0,0,0,0,0,0,0],"id":20,"left_children":[1,3,5,7,9,11,13,-1,-1,-1,-1,-1,-1,-1,-1],"loss_changes":[9.928221E5,1.859379E5,1.9451319E5,2.4011875E4,6.4303727E4,2.2509227E4,2.0772062E4,0E0,0E0,0E0,0E0,0E0,0E0,0E0,0E0],"parents":[2147483647,0,0,1,1,2,2,3,3,4,4,5,5,6,6],"right_children":[2,4,6,8,10,12,14,-1,-1,-1,-1,-1,-1,-1,-1],"split_conditions":[6.270496E2,4.613033E2,8.101244E2,3.571945E2,6.26939E2,7.63E0,8.77269E2,-3.769847E0,-2.4853082E0,-5.9411234E-1,-3.0454152E0,9.9080724E-1,2.5876973E0,3.06075E0,4.5219264E0],"split_indices":[0,0,0,0,0,5,1,0,0,0,0,0,0,0,0],"split_type":[0,0,0,0,0,0,0,0,0,0,0,0,0,0,0],"sum_hessian":[1.17E2,6.2E1,5.5E1,2.4E1,3.8E1,3.9E1,1.6E1,1.3E1,1.1E1,3.3E1,5E0,3.5E1,4E0,8E0,8E0],"tree_param":{"num_deleted":"0","num_feature":"22","num_nodes":"15","size_leaf_vector":"1"}},{"base_weights":[2.6491694E0,-8.4520164E1,1.020334E2,-1.535135E2,-4.7204296E1,5.9613358E1,1.7120055E2,-3.535243E0,-2.2647007E0,-1.2204424E0,2.1025908E0,1.0308274E0,2.7782052E0,2.985487E0,4.2370076E0],"categories":[],"categories_nodes":[],"categories_segments":[],"categories_sizes":[],"default_left":[0,0,0,0,0,0,0,0,0,0,0,0,0,0,0],"id":21,"left_children":[1,3,5,7,9,11,13,-1,-1,-1,-1,-1,-1,-1,-1],"loss_changes":[9.270132E5,1.4662156E5,1.4655319E5,1.7888688E4,7.516378E4,2.0336914E4,1.6819875E4,0E0,0E0,0E0,0E0,0E0,0E0,0E0,0E0],"parents":[2147483647,0,0,1,1,2,2,3,3,4,4,5,5,6,6],"right_children":[2,4,6,8,10,12,14,-1,-1,-1,-1,-1,-1,-1,-1],"split_conditions":[6.270496E2,4.69352E2,7.595052E2,3.681153E2,4E0,1.384E1,8.853957E2,-3.535243E0,-2.2647007E0,-1.2204424E0,2.1025908E0,1.0308274E0,2.7782052E0,2.985487E0,4.2370076E0],"split_indices":[0,0,3,3,21,5,0,0,0,0,0,0,0,0,0],"split_type":[0,0,0,0,0,0,0,0,0,0,0,0,0,0,0],"sum_hessian":[1.07E2,5.7E1,5E1,2E1,3.7E1,3.1E1,1.9E1,1.3E1,7E0,3.4E1,3E0,2.8E1,3E0,1.2E1,7E0],"tree_param":{"num_deleted":"0","num_feature":"22","num_nodes":"15","size_leaf_vector":"1"}},{"base_weights":[-6.9748554E0,-7.051637E1,1.0088252E2,-3.924522E1,-1.6601949E2,6.461869E1,1.8450029E2,-2.765066E0,-4.5382646E-1,-3.7444258E0,-2.2967765E0,1.1109128E0,3.0087082E0,3.477724E0,5.012067E0],"categories":[],"categories_nodes":[],"categories_segments":[],"categories_sizes":[],"default_left":[0,0,0,0,0,0,0,0,0,0,0,0,0,0,0],"id":22,"left_children":[1,3,5,7,9,11,13,-1,-1,-1,-1,-1,-1,-1,-1],"loss_changes":[7.950068E5,2.17886E5,1.3022453E5,9.0022375E4,1.8417219E4,2.3909586E4,9.547844E3,0E0,0E0,0E0,0E0,0E0,0E0,0E0,0E0],"parents":[2147483647,0,0,1,1,2,2,3,3,4,4,5,5,6,6],"right_children":[2,4,6,8,10,12,14,-1,-1,-1,-1,-1,-1,-1,-1],"split_conditions":[6.543075E2,1.229E1,8.056504E2,4.002151E2,1.2E1,2.451E1,9.267024E2,-2.765066E0,-4.5382646E-1,-3.7444258E0,-2.2967765E0,1.1109128E0,3.0087082E0,3.477724E0,5.012067E0],"split_indices":[3,10,1,2,19,9,3,0,0,0,0,0,0,0,0],"split_type":[0,0,0,0,0,0,0,0,0,0,0,0,0,0,0],"sum_hessian":[1.16E2,7.3E1,4.3E1,5.5E1,1.8E1,3E1,1.3E1,8E0,4.7E1,1.3E1,5E0,2.7E1,3E0,1.1E1,2E0],"tree_param":{"num_deleted":"0","num_feature":"22","num_nodes":"15","size_leaf_vector":"1"}},{"base_weights":[-2.1311216E0,-6.0114876E1,1.0250596E2,-1.4826059E2,-2.7453148E1,5.266986E1,1.6613983E2,-3.728645E0,-2.3760734E0,-1.0662384E0,6.657055E-1,7.699496E-1,1.8818048E0,1.4916155E0,3.7154572E0],"categories":[],"categories_nodes":[],"categories_segments":[],"categories_sizes":[],"default_left":[0,0,0,0,0,0,0,0,0,0,0,0,0,0,0],"id":23,"left_children":[1,3,5,7,9,11,13,-1,-1,-1,-1,-1,-1,-1,-1],"loss_changes":[6.977332E5,2.1293953E5,1.2988178E5,2.2116938E4,8.3322305E4,1.3455246E4,3.0254688E4,0E0,0E0,0E0,0E0,0E0,0E0,0E0,0E0],"parents":[2147483647,0,0,1,1,2,2,3,3,4,4,5,5,6,6],"right_children":[2,4,6,8,10,12,14,-1,-1,-1,-1,-1,-1,-1,-1],"split_conditions":[6.6E2,4.257206E2,7.379239E2,3.571945E2,5.868E2,2.56E0,-6.65E0,-3.728645E0,-2.3760734E0,-1.0662384E0,6.657055E-1,7.699496E-1,1.8818048E0,1.4916155E0,3.7154572E0],"split_indices":[1,4,4,1,11,5,5,0,0,0,0,0,0,0,0],"split_type":[0,0,0,0,0,0,0,0,0,0,0,0,0,0,0],"sum_hessian":[1.15E2,7.4E1,4.1E1,2E1,5.4E1,2.3E1,1.8E1,9E0,1.1E1,3.8E1,1.6E1,1.7E1,6E0,3E0,1.5E1],"tree_param":{"num_deleted":"0","num_feature":"22","num_nodes":"15","size_leaf_vector":"1"}},{"base_weights":[-7.0334953E-1,-8.6054756E1,9.107835E1,-4.8427307E1,-1.6753381E2,5.4633263E1,1.6189719E2,6.378853E-1,-1.3918982E0,-4.512685E0,-2.9341667E0,5.799703E-1,1.5907326E0,2.7442307E0,3.9029362E0],"categories":[],"categories_nodes":[],"categories_segments":[],"categories_sizes":[],"default_left":[0,0,0,0,0,0,0,0,0,0,0,0,0,0,0],"id":24,"left_children":[1,3,5,7,9,11,13,-1,-1,-1,-1,-1,-1,-1,-1],"loss_changes":[8.617348E5,1.7461612E5,1.366529E5,6.467083E4,2.1942156E4,2.1957914E4,1.44748125E4,0E0,0E0,0E0,0E0,0E0,0E0,0E0,0E0],"parents":[2147483647,0,0,1,1,2,2,3,3,4,4,5,5,6,6],"right_children":[2,4,6,8,10,12,14,-1,-1,-1,-1,-1,-1,-1,-1],"split_conditions":[6.270496E2,3.88E0,8.101244E2,1.204E1,4E0,6.938743E2,1.83E0,6.378853E-1,-1.3918982E0,-4.512685E0,-2.9341667E0,5.799703E-1,1.5907326E0,2.7442307E0,3.9029362E0],"split_indices":[0,12,0,10,19,3,5,0,0,0,0,0,0,0,0],"split_type":[0,0,0,0,0,0,0,0,0,0,0,0,0,0,0],"sum_hessian":[1.1E2,5.7E1,5.3E1,3.9E1,1.8E1,3.5E1,1.8E1,8E0,3.1E1,5E0,1.3E1,1.7E1,1.8E1,1E1,8E0],"tree_param":{"num_deleted":"0","num_feature":"22","num_nodes":"15","size_leaf_vector":"1"}},{"base_weights":[-2.8218157E0,-7.660773E1,8.866034E1,-1.4011478E2,-3.913451E1,5.5221912E1,1.7458273E2,-3.2977443E0,-2.0790372E0,-5.800117E-1,-4.6270313E0,6.686874E-1,1.8953117E0,2.7385654E0,3.9454272E0],"categories":[],"categories_nodes":[],"categories_segments":[],"categories_sizes":[],"default_left":[0,0,0,0,0,0,0,0,0,0,0,0,0,0,0],"id":25,"left_children":[1,3,5,7,9,11,13,-1,-1,-1,-1,-1,-1,-1,-1],"loss_changes":[7.5603044E5,1.4743669E5,1.4350662E5,1.9863812E4,7.665644E4,3.0748422E4,1.1282156E4,0E0,0E0,0E0,0E0,0E0,0E0,0E0,0E0],"parents":[2147483647,0,0,1,1,2,2,3,3,4,4,5,5,6,6],"right_children":[2,4,6,8,10,12,14,-1,-1,-1,-1,-1,-1,-1,-1],"split_conditions":[6.29039E2,4.257206E2,8.101244E2,3.590195E2,2.451E1,7.218254E2,6.2973E3,-3.2977443E0,-2.0790372E0,-5.800117E-1,-4.6270313E0,6.686874E-1,1.8953117E0,2.7385654E0,3.9454272E0],"split_indices":[4,4,1,4,9,1,7,0,0,0,0,0,0,0,0],"split_type":[0,0,0,0,0,0,0,0,0,0,0,0,0,0,0],"sum_hessian":[1.12E2,6.2E1,5E1,2.3E1,3.9E1,3.6E1,1.4E1,1.4E1,9E0,3.7E1,2E0,2.3E1,1.3E1,5E0,9E0],"tree_param":{"num_deleted":"0","num_feature":"22","num_nodes":"15","size_leaf_vector":"1"}},{"base_weights":[-8.869196E0,-8.394297E1,8.903971E1,-1.4212206E2,-4.513484E1,5.0885452E1,1.605269E2,-3.0718832E0,-1.3879452E0,-5.953129E-1,-2.8498583E0,5.439453E-1,1.6523294E0,2.6812408E0,3.938947E0],"categories":[],"categories_nodes":[],"categories_segments":[],"categories_sizes":[],"default_left":[0,0,0,0,0,0,0,0,0,0,0,0,0,0,0],"id":26,"left_children":[1,3,5,7,9,11,13,-1,-1,-1,-1,-1,-1,-1,-1],"loss_changes":[7.7916794E5,1.3535069E5,1.2533153E5,1.81585E4,5.3928414E4,2.2254672E4,1.5122375E4,0E0,0E0,0E0,0E0,0E0,0E0,0E0,0E0],"parents":[2147483647,0,0,1,1,2,2,3,3,4,4,5,5,6,6],"right_children":[2,4,6,8,10,12,14,-1,-1,-1,-1,-1,-1,-1,-1],"split_conditions":[6.270496E2,4.69352E2,7.909174E2,1.747E1,6.268285E2,6.962905E2,8.77269E2,-3.0718832E0,-1.3879452E0,-5.953129E-1,-2.8498583E0,5.439453E-1,1.6523294E0,2.6812408E0,3.938947E0],"split_indices":[0,0,0,5,0,0,1,0,0,0,0,0,0,0,0],"split_type":[0,0,0,0,0,0,0,0,0,0,0,0,0,0,0],"sum_hessian":[1.06E2,6E1,4.6E1,2.4E1,3.6E1,3E1,1.6E1,2.1E1,3E0,3.1E1,5E0,1.7E1,1.3E1,9E0,7E0],"tree_param":{"num_deleted":"0","num_feature":"22","num_nodes":"15","size_leaf_vector":"1"}},{"base_weights":[-1.1999E-1,-7.681746E1,8.632791E1,-1.5658937E2,-4.6662724E1,5.2581177E1,1.68532E2,-3.592484E0,-2.5234952E0,-7.1475106E-1,-2.399035E0,8.0185753E-1,1.913878E0,2.8759851E0,3.9093978E0],"categories":[],"categories_nodes":[],"categories_segments":[],"categories_sizes":[],"default_left":[0,0,0,0,0,0,0,0,0,0,0,0,0,0,0],"id":27,"left_children":[1,3,5,7,9,11,13,-1,-1,-1,-1,-1,-1,-1,-1],"loss_changes":[7.7577E5,1.4901153E5,1.5243422E5,1.137275E4,3.632717E4,2.1047188E4,1.0281406E4,0E0,0E0,0E0,0E0,0E0,0E0,0E0,0E0],"parents":[2147483647,0,0,1,1,2,2,3,3,4,4,5,5,6,6],"right_children":[2,4,6,8,10,12,14,-1,-1,-1,-1,-1,-1,-1,-1],"split_conditions":[6.270496E2,3.926985E2,8.101244E2,3.494688E2,2.38E1,7.464264E2,8.782157E2,-3.592484E0,-2.5234952E0,-7.1475106E-1,-2.399035E0,8.0185753E-1,1.913878E0,2.8759851E0,3.9093978E0],"split_indices":[0,0,0,0,9,1,0,0,0,0,0,0,0,0,0],"split_type":[0,0,0,0,0,0,0,0,0,0,0,0,0,0,0],"sum_hessian":[1.17E2,6.2E1,5.5E1,1.7E1,4.5E1,3.9E1,1.6E1,1E1,7E0,3.9E1,6E0,3E1,9E0,8E0,8E0],"tree_param":{"num_deleted":"0","num_feature":"22","num_nodes":"15","size_leaf_vector":"1"}},{"base_weights":[-2.9990432E0,-8.827162E1,7.79279E1,-1.4451015E2,-4.289261E1,3.9504288E1,1.3392987E2,-3.497567E0,-2.2722323E0,-6.498933E-1,-3.9551804E0,4.5506948E-1,1.3052295E0,2.052569E0,3.3400872E0],"categories":[],"categories_nodes":[],"categories_segments":[],"categories_sizes":[],"default_left":[0,0,0,0,0,0,0,0,0,0,0,0,0,0,0],"id":28,"left_children":[1,3,5,7,9,11,13,-1,-1,-1,-1,-1,-1,-1,-1],"loss_changes":[7.936311E5,1.427971E5,1.2684772E5,2.2895094E4,5.03967E4,1.4923488E4,2.4337125E4,0E0,0E0,0E0,0E0,0E0,0E0,0E0,0E0],"parents":[2147483647,0,0,1,1,2,2,3,3,4,4,5,5,6,6],"right_children":[2,4,6,8,10,12,14,-1,-1,-1,-1,-1,-1,-1,-1],"split_conditions":[6.270496E2,4.69352E2,7.542467E2,3.494688E2,1.229E1,6.924221E2,4.7E-1,-3.497567E0,-2.2722323E0,-6.498933E-1,-3.9551804E0,4.5506948E-1,1.3052295E0,2.052569E0,3.3400872E0],"split_indices":[0,0,0,0,10,0,5,0,0,0,0,0,0,0,0],"split_type":[0,0,0,0,0,0,0,0,0,0,0,0,0,0,0],"sum_hessian":[1.15E2,5.6E1,5.9E1,2.5E1,3.1E1,3.5E1,2.4E1,1.3E1,1.2E1,2.9E1,2E0,2.1E1,1.4E1,1.2E1,1.2E1],"tree_param":{"num_deleted":"0","num_feature":"22","num_nodes":"15","size_leaf_vector":"1"}},{"base_weights":[-6.008802E0,-8.342283E1,8.107133E1,-1.3850093E2,-4.209251E1,4.5718853E1,1.3995415E2,-3.427145E0,-2.195373E0,-6.6896755E-1,-3.8756108E0,7.4405664E-1,2.2854493E0,2.2454963E0,3.446754E0],"categories":[],"categories_nodes":[],"categories_segments":[],"categories_sizes":[],"default_left":[0,0,0,0,0,0,0,0,0,0,0,0,0,0,0],"id":29,"left_children":[1,3,5,7,9,11,13,-1,-1,-1,-1,-1,-1,-1,-1],"loss_changes":[8.0223375E5,1.4329944E5,1.16454625E5,2.50225E4,4.7886582E4,2.0707984E4,1.8438719E4,0E0,0E0,0E0,0E0,0E0,0E0,0E0,0E0],"parents":[2147483647,0,0,1,1,2,2,3,3,4,4,5,5,6,6],"right_children":[2,4,6,8,10,12,14,-1,-1,-1,-1,-1,-1,-1,-1],"split_conditions":[6.270496E2,4.69352E2,7.54185E2,3.494688E2,1.229E1,7.63E0,3.5E-1,-3.427145E0,-2.195373E0,-6.6896755E-1,-3.8756108E0,7.4405664E-1,2.2854493E0,2.2454963E0,3.446754E0],"split_indices":[0,0,0,0,10,5,5,0,0,0,0,0,0,0,0],"split_type":[0,0,0,0,0,0,0,0,0,0,0,0,0,0,0],"sum_hessian":[1.19E2,6.3E1,5.6E1,2.7E1,3.6E1,3.5E1,2.1E1,1.3E1,1.4E1,3.4E1,2E0,3.1E1,4E0,1.1E1,1E1],"tree_param":{"num_deleted":"0","num_feature":"22","num_nodes":"15","size_leaf_vector":"1"}},{"base_weights":[-5.535788E-1,-5.921302E1,8.676948E1,-2.6241621E1,-1.424667E2,4.1149025E1,1.3037347E2,3.617922E-1,-1.5810249E0,-3.7115445E0,-2.3759274E0,1.880213E0,5.9412664E-1,2.161583E0,3.9365265E0],"categories":[],"categories_nodes":[],"categories_segments":[],"categories_sizes":[],"default_left":[0,0,0,0,0,0,0,0,0,0,0,0,0,0,0],"id":30,"left_children":[1,3,5,7,9,11,13,-1,-1,-1,-1,-1,-1,-1,-1],"loss_changes":[5.737042E5,1.8381298E5,8.940778E4,1.1095557E5,1.9244188E4,1.3302242E4,3.42745E4,0E0,0E0,0E0,0E0,0E0,0E0,0E0,0E0],"parents":[2147483647,0,0,1,1,2,2,3,3,4,4,5,5,6,6],"right_children":[2,4,6,8,10,12,14,-1,-1,-1,-1,-1,-1,-1,-1],"split_conditions":[6.543075E2,3.88E0,1.9E3,1.22045E4,7E0,7.1E2,8.695661E2,3.617922E-1,-1.5810249E0,-3.7115445E0,-2.3759274E0,1.880213E0,5.9412664E-1,2.161583E0,3.9365265E0],"split_indices":[3,12,6,7,20,6,3,0,0,0,0,0,0,0,0],"split_type":[0,0,0,0,0,0,0,0,0,0,0,0,0,0,0],"sum_hessian":[1.12E2,6.7E1,4.5E1,4.8E1,1.9E1,2.2E1,2.3E1,2.6E1,2.2E1,7E0,1.2E1,4E0,1.8E1,1.7E1,6E0],"tree_param":{"num_deleted":"0","num_feature":"22","num_nodes":"15","size_leaf_vector":"1"}},{"base_weights":[-1.8316922E0,-7.80547E1,7.8323654E1,-1.3006479E2,-4.1915028E1,4.644421E1,1.437177E2,-3.1691968E0,-2.0219796E0,-1.1909083E0,8.879393E-1,7.659201E-1,2.413114E0,2.2256474E0,3.3787656E0],"categories":[],"categories_nodes":[],"categories_segments":[],"categories_sizes":[],"default_left":[0,0,0,0,0,0,0,0,0,0,0,0,0,0,0],"id":31,"left_children":[1,3,5,7,9,11,13,-1,-1,-1,-1,-1,-1,-1,-1],"loss_changes":[7.270763E5,1.14548875E5,1.2079291E5,2.0067719E4,5.3344816E4,2.396954E4,1.4979375E4,0E0,0E0,0E0,0E0,0E0,0E0,0E0,0E0],"parents":[2147483647,0,0,1,1,2,2,3,3,4,4,5,5,6,6],"right_children":[2,4,6,8,10,12,14,-1,-1,-1,-1,-1,-1,-1,-1],"split_conditions":[6.270496E2,4.69352E2,8.101244E2,3.528471E2,5.04E0,7.63E0,4.7E-1,-3.1691968E0,-2.0219796E0,-1.1909083E0,8.879393E-1,7.659201E-1,2.413114E0,2.2256474E0,3.3787656E0],"split_indices":[0,0,0,0,5,5,5,0,0,0,0,0,0,0,0],"split_type":[0,0,0,0,0,0,0,0,0,0,0,0,0,0,0],"sum_hessian":[1.19E2,6.1E1,5.8E1,2.5E1,3.6E1,3.9E1,1.9E1,1.3E1,1.2E1,3E1,6E0,3.5E1,4E0,8E0,1.1E1],"tree_param":{"num_deleted":"0","num_feature":"22","num_nodes":"15","size_leaf_vector":"1"}},{"base_weights":[-6.8395963E0,-7.2490295E1,7.038479E1,-4.011315E1,-1.4231425E2,4.5662937E1,1.3566325E2,3.8269287E-1,-1.6515021E0,-3.3376045E0,-2.339819E0,4.5787004E-1,1.461885E0,2.1287243E0,3.1822488E0],"categories":[],"categories_nodes":[],"categories_segments":[],"categories_sizes":[],"default_left":[0,0,0,0,0,0,0,0,0,0,0,0,0,0,0],"id":32,"left_children":[1,3,5,7,9,11,13,-1,-1,-1,-1,-1,-1,-1,-1],"loss_changes":[5.627731E5,1.3552772E5,8.218808E4,1.01595125E5,1.14235E4,2.278664E4,9.190203E3,0E0,0E0,0E0,0E0,0E0,0E0,0E0,0E0],"parents":[2147483647,0,0,1,1,2,2,3,3,4,4,5,5,6,6],"right_children":[2,4,6,8,10,12,14,-1,-1,-1,-1,-1,-1,-1,-1],"split_conditions":[6.366534E2,1.229E1,8.056504E2,1.1044E4,6E-1,6.938743E2,6.2973E3,3.8269287E-1,-1.6515021E0,-3.3376045E0,-2.339819E0,4.5787004E-1,1.461885E0,2.1287243E0,3.1822488E0],"split_indices":[3,10,2,6,5,3,6,0,0,0,0,0,0,0,0],"split_type":[0,0,0,0,0,0,0,0,0,0,0,0,0,0,0],"sum_hessian":[1.11E2,6E1,5.1E1,4.1E1,1.9E1,3.7E1,1.4E1,1.7E1,2.4E1,1E1,9E0,2E1,1.7E1,6E0,8E0],"tree_param":{"num_deleted":"0","num_feature":"22","num_nodes":"15","size_leaf_vector":"1"}},{"base_weights":[-3.9318807E0,-6.0125164E1,8.4916885E1,1.4609657E1,-8.704099E1,5.0015427E1,1.5001173E2,7.9843384E-1,9.926662E-2,-2.749107E0,-1.1416556E0,1.2900048E0,-2.9133758E-1,2.490117E0,3.6249306E0],"categories":[],"categories_nodes":[],"categories_segments":[],"categories_sizes":[],"default_left":[0,0,0,0,0,0,0,0,0,0,0,0,0,0,0],"id":33,"left_children":[1,3,5,7,9,11,13,-1,-1,-1,-1,-1,-1,-1,-1],"loss_changes":[5.5419556E5,1.3683455E5,9.756369E4,4.336744E3,7.49475E4,2.5388836E4,1.16373125E4,0E0,0E0,0E0,0E0,0E0,0E0,0E0,0E0],"parents":[2147483647,0,0,1,1,2,2,3,3,4,4,5,5,6,6],"right_children":[2,4,6,8,10,12,14,-1,-1,-1,-1,-1,-1,-1,-1],"split_conditions":[4E0,1.056E1,7.595052E2,-3.07E0,8E0,1.265E1,8.587693E2,7.9843384E-1,9.926662E-2,-2.749107E0,-1.1416556E0,1.2900048E0,-2.9133758E-1,2.490117E0,3.6249306E0],"split_indices":[21,10,3,8,19,10,3,0,0,0,0,0,0,0,0],"split_type":[0,0,0,0,0,0,0,0,0,0,0,0,0,0,0],"sum_hessian":[1.11E2,6.8E1,4.3E1,1.8E1,5E1,2.8E1,1.5E1,5E0,1.3E1,1.9E1,3.1E1,2.3E1,5E0,8E0,7E0],"tree_param":{"num_deleted":"0","num_feature":"22","num_nodes":"15","size_leaf_vector":"1"}},{"base_weights":[1.20057024E-1,-5.9338943E1,8.385907E1,-1.2419615E2,-2.6893564E1,4.8068996E1,1.3154204E2,-2.978958E0,-1.9781325E0,-4.020718E-1,-3.6012876E0,4.0092555E-1,1.3924638E0,1.8054274E0,3.0695627E0],"categories":[],"categories_nodes":[],"categories_segments":[],"categories_sizes":[],"default_left":[0,0,0,0,0,0,0,0,0,0,0,0,0,0,0],"id":34,"left_children":[1,3,5,7,9,11,13,-1,-1,-1,-1,-1,-1,-1,-1],"loss_changes":[5.875607E5,1.4510638E5,8.350728E4,1.4001031E4,4.8295465E4,1.6565434E4,1.8204531E4,0E0,0E0,0E0,0E0,0E0,0E0,0E0,0E0],"parents":[2147483647,0,0,1,1,2,2,3,3,4,4,5,5,6,6],"right_children":[2,4,6,8,10,12,14,-1,-1,-1,-1,-1,-1,-1,-1],"split_conditions":[6.578947E2,4.711411E2,9.3E-1,3.571945E2,1.234E1,7.218254E2,7.313843E2,-2.978958E0,-1.9781325E0,-4.020718E-1,-3.6012876E0,4.0092555E-1,1.3924638E0,1.8054274E0,3.0695627E0],"split_indices":[0,0,5,0,10,0,4,0,0,0,0,0,0,0,0],"split_type":[0,0,0,0,0,0,0,0,0,0,0,0,0,0,0],"sum_hessian":[1.18E2,6.9E1,4.9E1,2.3E1,4.6E1,2.8E1,2.1E1,1.2E1,1.1E1,4.4E1,2E0,1.2E1,1.6E1,7E0,1.4E1],"tree_param":{"num_deleted":"0","num_feature":"22","num_nodes":"15","size_leaf_vector":"1"}},{"base_weights":[-4.0134802E-1,-5.7207756E1,7.378207E1,-1.1703575E2,-2.5851196E1,5.425615E1,1.498483E2,-2.819985E0,-1.7994213E0,-3.4820303E-1,-3.958522E0,1.4390686E0,-6.1054565E-2,4.072719E0,2.5626926E0],"categories":[],"categories_nodes":[],"categories_segments":[],"categories_sizes":[],"default_left":[0,0,0,0,0,0,0,0,0,0,0,0,0,0,0],"id":35,"left_children":[1,3,5,7,9,11,13,-1,-1,-1,-1,-1,-1,-1,-1],"loss_changes":[4.7619953E5,1.1997756E5,7.264444E4,1.3846781E4,6.124873E4,3.8482883E4,1.1593078E4,0E0,0E0,0E0,0E0,0E0,0E0,0E0,0E0],"parents":[2147483647,0,0,1,1,2,2,3,3,4,4,5,5,6,6],"right_children":[2,4,6,8,10,12,14,-1,-1,-1,-1,-1,-1,-1,-1],"split_conditions":[4E0,4.69352E2,2.451E1,3.571945E2,2.38E1,-3.11E-1,1.5269E4,-2.819985E0,-1.7994213E0,-3.4820303E-1,-3.958522E0,1.4390686E0,-6.1054565E-2,4.072719E0,2.5626926E0],"split_indices":[21,1,9,1,9,17,7,0,0,0,0,0,0,0,0],"split_type":[0,0,0,0,0,0,0,0,0,0,0,0,0,0,0],"sum_hessian":[1.13E2,6.4E1,4.9E1,2.2E1,4.2E1,3.9E1,1E1,1.2E1,1E1,4E1,2E0,3E1,9E0,3E0,7E0],"tree_param":{"num_deleted":"0","num_feature":"22","num_nodes":"15","size_leaf_vector":"1"}},{"base_weights":[1.3633709E0,-8.6100464E1,5.6201168E1,-1.3199457E2,-5.164725E1,2.8444885E1,1.3171571E2,-3.8276088E0,-2.5106819E0,1.2659838E0,-1.2503343E0,2.4296193E-1,1.2522833E0,2.3824558E0,3.3508637E0],"categories":[],"categories_nodes":[],"categories_segments":[],"categories_sizes":[],"default_left":[0,0,0,0,0,0,0,0,0,0,0,0,0,0,0],"id":36,"left_children":[1,3,5,7,9,11,13,-1,-1,-1,-1,-1,-1,-1,-1],"loss_changes":[5.2280084E5,6.629178E4,1.4033456E5,7.4195625E3,2.8707227E4,2.7036867E4,8.1640625E3,0E0,0E0,0E0,0E0,0E0,0E0,0E0,0E0],"parents":[2147483647,0,0,1,1,2,2,3,3,4,4,5,5,6,6],"right_children":[2,4,6,8,10,12,14,-1,-1,-1,-1,-1,-1,-1,-1],"split_conditions":[5.644685E2,3.926985E2,7.595052E2,2.958158E2,-1.199E1,6.923972E2,9.245348E2,-3.8276088E0,-2.5106819E0,1.2659838E0,-1.2503343E0,2.4296193E-1,1.2522833E0,2.3824558E0,3.3508637E0],"split_indices":[0,0,3,0,8,3,0,0,0,0,0,0,0,0,0],"split_type":[0,0,0,0,0,0,0,0,0,0,0,0,0,0,0],"sum_hessian":[1.09E2,4.2E1,6.7E1,1.8E1,2.4E1,4.9E1,1.8E1,2E0,1.6E1,2E0,2.2E1,3.3E1,1.6E1,1.3E1,5E0],"tree_param":{"num_deleted":"0","num_feature":"22","num_nodes":"15","size_leaf_vector":"1"}},{"base_weights":[-3.0663495E0,-3.97956E1,7.9014534E1,-1.111427E2,-1.4300931E1,4.569139E1,1.2656368E2,-2.7752979E0,-1.6993978E0,-1.554803E-1,-3.8560743E0,7.5447756E-1,2.402761E0,1.4528264E0,2.8461888E0],"categories":[],"categories_nodes":[],"categories_segments":[],"categories_sizes":[],"default_left":[0,0,0,0,0,0,0,0,0,0,0,0,0,0,0],"id":37,"left_children":[1,3,5,7,9,11,13,-1,-1,-1,-1,-1,-1,-1,-1],"loss_changes":[3.3161378E5,1.3816834E5,5.3762734E4,1.4119594E4,6.5171688E4,1.2012051E4,1.1110141E4,0E0,0E0,0E0,0E0,0E0,0E0,0E0,0E0],"parents":[2147483647,0,0,1,1,2,2,3,3,4,4,5,5,6,6],"right_children":[2,4,6,8,10,12,14,-1,-1,-1,-1,-1,-1,-1,-1],"split_conditions":[6.745894E2,4.257206E2,9.3E-1,3.553942E2,1.286E1,8.77269E2,7.132974E2,-2.7752979E0,-1.6993978E0,-1.554803E-1,-3.8560743E0,7.5447756E-1,2.402761E0,1.4528264E0,2.8461888E0],"split_indices":[3,4,5,3,10,2,4,0,0,0,0,0,0,0,0],"split_type":[0,0,0,0,0,0,0,0,0,0,0,0,0,0,0],"sum_hessian":[1.1E2,7.6E1,3.4E1,2E1,5.6E1,2E1,1.4E1,1E1,1E1,5.4E1,2E0,1.8E1,2E0,3E0,1.1E1],"tree_param":{"num_deleted":"0","num_feature":"22","num_nodes":"15","size_leaf_vector":"1"}},{"base_weights":[5.0510507E0,-5.515696E1,7.172003E1,-7.673488E1,5.6982258E1,3.7062496E1,1.252467E2,-2.4209394E0,-1.1194886E0,2.5901886E-2,2.2662582E0,3.581117E-1,1.1822888E0,1.836028E0,2.9131126E0],"categories":[],"categories_nodes":[],"categories_segments":[],"categories_sizes":[],"default_left":[0,0,0,0,0,0,0,0,0,0,0,0,0,0,0],"id":38,"left_children":[1,3,5,7,9,11,13,-1,-1,-1,-1,-1,-1,-1,-1],"loss_changes":[4.7367834E5,1.5004848E5,1.0378453E5,4.7693688E4,3.0881053E4,1.4143668E4,1.43880625E4,0E0,0E0,0E0,0E0,0E0,0E0,0E0,0E0],"parents":[2147483647,0,0,1,1,2,2,3,3,4,4,5,5,6,6],"right_children":[2,4,6,8,10,12,14,-1,-1,-1,-1,-1,-1,-1,-1],"split_conditions":[6.29039E2,5.868E2,7.379239E2,5.53E2,3.71E0,-5E-1,4.7E-1,-2.4209394E0,-1.1194886E0,2.5901886E-2,2.2662582E0,3.581117E-1,1.1822888E0,1.836028E0,2.9131126E0],"split_indices":[4,11,4,11,12,5,5,0,0,0,0,0,0,0,0],"split_type":[0,0,0,0,0,0,0,0,0,0,0,0,0,0,0],"sum_hessian":[1.18E2,6.2E1,5.6E1,5.2E1,1E1,3.4E1,2.2E1,1.7E1,3.5E1,5E0,5E0,1.8E1,1.6E1,8E0,1.4E1],"tree_param":{"num_deleted":"0","num_feature":"22","num_nodes":"15","size_leaf_vector":"1"}},{"base_weights":[-3.6978896E0,-5.354044E1,6.8283E1,1.7038628E1,-8.058283E1,4.638325E1,1.1203125E2,1.6287772E-1,8.0912524E-1,-2.4741101E0,-1.1397953E0,7.751057E-1,2.3591766E0,1.2381053E0,2.4115388E0],"categories":[],"categories_nodes":[],"categories_segments":[],"categories_sizes":[],"default_left":[0,0,0,0,0,0,0,0,0,0,0,0,0,0,0],"id":39,"left_children":[1,3,5,7,9,11,13,-1,-1,-1,-1,-1,-1,-1,-1],"loss_changes":[3.946539E5,1.2410469E5,4.3011656E4,3.6995156E3,4.7536344E4,1.6657895E4,5.7336875E3,0E0,0E0,0E0,0E0,0E0,0E0,0E0,0E0],"parents":[2147483647,0,0,1,1,2,2,3,3,4,4,5,5,6,6],"right_children":[2,4,6,8,10,12,14,-1,-1,-1,-1,-1,-1,-1,-1],"split_conditions":[4E0,2.285E1,7.595052E2,3.82E0,6E0,7.32E0,-6.65E0,1.6287772E-1,8.0912524E-1,-2.4741101E0,-1.1397953E0,7.751057E-1,2.3591766E0,1.2381053E0,2.4115388E0],"split_indices":[21,9,3,5,19,5,5,0,0,0,0,0,0,0,0],"split_type":[0,0,0,0,0,0,0,0,0,0,0,0,0,0,0],"sum_hessian":[1.1E2,6.5E1,4.5E1,1.8E1,4.7E1,3E1,1.5E1,1.3E1,5E0,1.7E1,3E1,2.7E1,3E0,2E0,1.3E1],"tree_param":{"num_deleted":"0","num_feature":"22","num_nodes":"15","size_leaf_vector":"1"}},{"base_weights":[3.5832675E0,-5.8733807E1,6.70038E1,-1.01231224E2,-2.4182102E1,3.385368E1,1.1255408E2,-2.6903193E0,-1.559534E0,-2.9302078E-1,-3.387148E0,5.7964945E-1,2.256016E0,1.8544551E0,3.0886972E0],"categories":[],"categories_nodes":[],"categories_segments":[],"categories_sizes":[],"default_left":[0,0,0,0,0,0,0,0,0,0,0,0,0,0,0],"id":40,"left_children":[1,3,5,7,9,11,13,-1,-1,-1,-1,-1,-1,-1,-1],"loss_changes":[4.5452147E5,8.508895E4,8.5979E4,1.9873688E4,4.427635E4,1.2989555E4,1.9880844E4,0E0,0E0,0E0,0E0,0E0,0E0,0E0,0E0],"parents":[2147483647,0,0,1,1,2,2,3,3,4,4,5,5,6,6],"right_children":[2,4,6,8,10,12,14,-1,-1,-1,-1,-1,-1,-1,-1],"split_conditions":[6.270496E2,4.942467E2,7.515983E2,3.571945E2,1.229E1,2.451E1,8.513676E2,-2.6903193E0,-1.559534E0,-2.9302078E-1,-3.387148E0,5.7964945E-1,2.256016E0,1.8544551E0,3.0886972E0],"split_indices":[0,0,0,0,10,9,4,0,0,0,0,0,0,0,0],"split_type":[0,0,0,0,0,0,0,0,0,0,0,0,0,0,0],"sum_hessian":[1.15E2,5.8E1,5.7E1,2.6E1,3.2E1,3.3E1,2.4E1,1.1E1,1.5E1,3E1,2E0,3.1E1,2E0,1.6E1,8E0],"tree_param":{"num_deleted":"0","num_feature":"22","num_nodes":"15","size_leaf_vector":"1"}},{"base_weights":[-5.043907E-1,-5.9142048E1,6.4637436E1,-1.05922226E2,-2.5706682E1,3.382344E1,1.13023575E2,-2.7449713E0,-1.7239766E0,-3.4734762E-1,-3.3190064E0,4.0086347E-1,1.0605283E0,2.1268563E0,3.6838386E0],"categories":[],"categories_nodes":[],"categories_segments":[],"categories_sizes":[],"default_left":[0,0,0,0,0,0,0,0,0,0,0,0,0,0,0],"id":41,"left_children":[1,3,5,7,9,11,13,-1,-1,-1,-1,-1,-1,-1,-1],"loss_changes":[4.3546506E5,9.376694E4,8.042122E4,1.52788125E4,4.1070188E4,8.608512E3,1.0668375E4,0E0,0E0,0E0,0E0,0E0,0E0,0E0,0E0],"parents":[2147483647,0,0,1,1,2,2,3,3,4,4,5,5,6,6],"right_children":[2,4,6,8,10,12,14,-1,-1,-1,-1,-1,-1,-1,-1],"split_conditions":[6.270496E2,4.942467E2,7.515983E2,3.494688E2,1.229E1,6.938743E2,3.295E1,-2.7449713E0,-1.7239766E0,-3.4734762E-1,-3.3190064E0,4.0086347E-1,1.0605283E0,2.1268563E0,3.6838386E0],"split_indices":[0,0,0,0,10,3,13,0,0,0,0,0,0,0,0],"split_type":[0,0,0,0,0,0,0,0,0,0,0,0,0,0,0],"sum_hessian":[1.14E2,6E1,5.4E1,2.5E1,3.5E1,3.3E1,2.1E1,1E1,1.5E1,3.3E1,2E0,1.9E1,1.4E1,1.9E1,2E0],"tree_param":{"num_deleted":"0","num_feature":"22","num_nodes":"15","size_leaf_vector":"1"}},{"base_weights":[-4.4146056E0,-3.9564037E1,8.137132E1,-1.6257963E1,-1.1802778E2,5.028511E1,1.2069603E2,2.5246203E-1,-1.3615118E0,-3.0375202E0,-2.0705411E0,7.0022917E-1,1.6870613E0,1.8140908E0,2.8397064E0],"categories":[],"categories_nodes":[],"categories_segments":[],"categories_sizes":[],"default_left":[0,0,0,0,0,0,0,0,0,0,0,0,0,0,0],"id":42,"left_children":[1,3,5,7,9,11,13,-1,-1,-1,-1,-1,-1,-1,-1],"loss_changes":[3.5278097E5,1.5170128E5,4.1453156E4,9.4671695E4,9.3015625E3,9.796844E3,9.169469E3,0E0,0E0,0E0,0E0,0E0,0E0,0E0,0E0],"parents":[2147483647,0,0,1,1,2,2,3,3,4,4,5,5,6,6],"right_children":[2,4,6,8,10,12,14,-1,-1,-1,-1,-1,-1,-1,-1],"split_conditions":[6.923972E2,1.234E1,7.99123E2,1.10763E4,4E0,9.3E-1,1.5E-1,2.5246203E-1,-1.3615118E0,-3.0375202E0,-2.0705411E0,7.0022917E-1,1.6870613E0,1.8140908E0,2.8397064E0],"split_indices":[3,10,3,7,20,5,5,0,0,0,0,0,0,0,0],"split_type":[0,0,0,0,0,0,0,0,0,0,0,0,0,0,0],"sum_hessian":[1.17E2,8.3E1,3.4E1,6.4E1,1.9E1,1.9E1,1.5E1,4.1E1,2.3E1,6E0,1.3E1,1.3E1,6E0,6E0,9E0],"tree_param":{"num_deleted":"0","num_feature":"22","num_nodes":"15","size_leaf_vector":"1"}},{"base_weights":[1.2404824E0,-5.0528732E1,6.337486E1,-9.972446E1,-2.2027763E1,3.919493E1,1.19742744E2,-2.8487968E0,-1.6148425E0,-8.2768685E-1,4.9809554E-1,3.9331943E-1,1.2586728E0,2.2343428E0,3.5525994E0],"categories":[],"categories_nodes":[],"categories_segments":[],"categories_sizes":[],"default_left":[0,0,0,0,0,0,0,0,0,0,0,0,0,0,0],"id":43,"left_children":[1,3,5,7,9,11,13,-1,-1,-1,-1,-1,-1,-1,-1],"loss_changes":[3.538516E5,8.405425E4,6.804831E4,1.7787156E4,3.390635E4,1.5991387E4,7.2647656E3,0E0,0E0,0E0,0E0,0E0,0E0,0E0,0E0],"parents":[2147483647,0,0,1,1,2,2,3,3,4,4,5,5,6,6],"right_children":[2,4,6,8,10,12,14,-1,-1,-1,-1,-1,-1,-1,-1],"split_conditions":[6.270496E2,4.942467E2,8.101244E2,-2.73E0,3.34E0,6.924221E2,9.267024E2,-2.8487968E0,-1.6148425E0,-8.2768685E-1,4.9809554E-1,3.9331943E-1,1.2586728E0,2.2343428E0,3.5525994E0],"split_indices":[0,0,0,5,5,0,3,0,0,0,0,0,0,0,0],"split_type":[0,0,0,0,0,0,0,0,0,0,0,0,0,0,0],"sum_hessian":[1.1E2,6E1,5E1,2.2E1,3.8E1,3.5E1,1.5E1,7E0,1.5E1,2.7E1,1.1E1,1.9E1,1.6E1,1.3E1,2E0],"tree_param":{"num_deleted":"0","num_feature":"22","num_nodes":"15","size_leaf_vector":"1"}},{"base_weights":[1.6749742E0,-5.338923E1,6.310376E1,-9.419327E1,-2.4565228E1,4.027195E1,1.14427124E2,-2.498811E0,-1.386263E0,-3.1744761E0,-3.266439E-1,6.5220994E-1,2.077277E0,1.7473356E0,2.8592176E0],"categories":[],"categories_nodes":[],"categories_segments":[],"categories_sizes":[],"default_left":[0,0,0,0,0,0,0,0,0,0,0,0,0,0,0],"id":44,"left_children":[1,3,5,7,9,11,13,-1,-1,-1,-1,-1,-1,-1,-1],"loss_changes":[3.7209712E5,6.814366E4,6.0835906E4,1.8060578E4,3.7650316E4,1.7762914E4,1.2036469E4,0E0,0E0,0E0,0E0,0E0,0E0,0E0,0E0],"parents":[2147483647,0,0,1,1,2,2,3,3,4,4,5,5,6,6],"right_children":[2,4,6,8,10,12,14,-1,-1,-1,-1,-1,-1,-1,-1],"split_conditions":[6.270496E2,4.942467E2,8.101244E2,3.571945E2,1.1216E3,7.63E0,8.77269E2,-2.498811E0,-1.386263E0,-3.1744761E0,-3.266439E-1,6.5220994E-1,2.077277E0,1.7473356E0,2.8592176E0],"split_indices":[0,0,0,0,6,5,1,0,0,0,0,0,0,0,0],"split_type":[0,0,0,0,0,0,0,0,0,0,0,0,0,0,0],"sum_hessian":[1.1E2,5.8E1,5.2E1,2.4E1,3.4E1,3.6E1,1.6E1,1.1E1,1.3E1,2E0,3.2E1,3.2E1,4E0,8E0,8E0],"tree_param":{"num_deleted":"0","num_feature":"22","num_nodes":"15","size_leaf_vector":"1"}},{"base_weights":[8.650491E-1,-3.7356674E1,7.844764E1,2.0223833E1,-6.43215E1,4.813316E1,1.16795235E2,2.4974208E0,1.974258E-1,-8.5767496E-1,-2.2278407E0,7.214016E-1,1.6604555E0,1.7930433E0,2.8390236E0],"categories":[],"categories_nodes":[],"categories_segments":[],"categories_sizes":[],"default_left":[0,0,0,0,0,0,0,0,0,0,0,0,0,0,0],"id":45,"left_children":[1,3,5,7,9,11,13,-1,-1,-1,-1,-1,-1,-1,-1],"loss_changes":[3.05466E5,1.0716441E5,3.9418547E4,2.3714562E4,4.7200156E4,7.95266E3,9.910141E3,0E0,0E0,0E0,0E0,0E0,0E0,0E0,0E0],"parents":[2147483647,0,0,1,1,2,2,3,3,4,4,5,5,6,6],"right_children":[2,4,6,8,10,12,14,-1,-1,-1,-1,-1,-1,-1,-1],"split_conditions":[6.923972E2,3.84E0,9.3E-1,5.049058E2,1.229E1,8.056504E2,8.325926E2,2.4974208E0,1.974258E-1,-8.5767496E-1,-2.2278407E0,7.214016E-1,1.6604555E0,1.7930433E0,2.8390236E0],"split_indices":[3,12,5,1,10,1,1,0,0,0,0,0,0,0,0],"split_type":[0,0,0,0,0,0,0,0,0,0,0,0,0,0,0],"sum_hessian":[1.03E2,6.9E1,3.4E1,2.2E1,4.7E1,1.9E1,1.5E1,2E0,2E1,3.2E1,1.5E1,1.4E1,5E0,7E0,8E0],"tree_param":{"num_deleted":"0","num_feature":"22","num_nodes":"15","size_leaf_vector":"1"}},{"base_weights":[1.3355575E0,-4.7917362E1,5.7895798E1,-8.895255E1,-2.0171665E1,3.1874283E1,1.1448585E2,-2.3446572E0,-1.3554077E0,-5.938017E-1,1.7148384E0,3.0231974E-1,1.0405744E0,1.5779393E0,2.6073313E0],"categories":[],"categories_nodes":[],"categories_segments":[],"categories_sizes":[],"default_left":[0,0,0,0,0,0,0,0,0,0,0,0,0,0,0],"id":46,"left_children":[1,3,5,7,9,11,13,-1,-1,-1,-1,-1,-1,-1,-1],"loss_changes":[3.2316472E5,7.05245E4,7.9427625E4,1.4747109E4,3.6276957E4,1.23118125E4,9.064484E3,0E0,0E0,0E0,0E0,0E0,0E0,0E0,0E0],"parents":[2147483647,0,0,1,1,2,2,3,3,4,4,5,5,6,6],"right_children":[2,4,6,8,10,12,14,-1,-1,-1,-1,-1,-1,-1,-1],"split_conditions":[6.270496E2,4.942467E2,7.99123E2,3.571945E2,1.37E2,6.962905E2,6.2285E3,-2.3446572E0,-1.3554077E0,-5.938017E-1,1.7148384E0,3.0231974E-1,1.0405744E0,1.5779393E0,2.6073313E0],"split_indices":[0,0,3,0,14,0,7,0,0,0,0,0,0,0,0],"split_type":[0,0,0,0,0,0,0,0,0,0,0,0,0,0,0],"sum_hessian":[1.16E2,6.2E1,5.4E1,2.5E1,3.7E1,3.7E1,1.7E1,1.1E1,1.4E1,3.4E1,3E0,2E1,1.7E1,5E0,1.2E1],"tree_param":{"num_deleted":"0","num_feature":"22","num_nodes":"15","size_leaf_vector":"1"}},{"base_weights":[-2.5641903E-1,-4.713011E1,5.9997204E1,1.0430956E1,-6.841502E1,3.4060127E1,1.0462518E2,-9.789095E-1,3.694843E-1,-2.171517E0,-8.185712E-1,8.863025E-1,-1.1799787E0,1.491466E0,2.597694E0],"categories":[],"categories_nodes":[],"categories_segments":[],"categories_sizes":[],"default_left":[0,0,0,0,0,0,0,0,0,0,0,0,0,0,0],"id":47,"left_children":[1,3,5,7,9,11,13,-1,-1,-1,-1,-1,-1,-1,-1],"loss_changes":[3.163263E5,7.72245E4,5.6631953E4,7.9311216E3,5.025303E4,2.8583344E4,1.3269766E4,0E0,0E0,0E0,0E0,0E0,0E0,0E0,0E0],"parents":[2147483647,0,0,1,1,2,2,3,3,4,4,5,5,6,6],"right_children":[2,4,6,8,10,12,14,-1,-1,-1,-1,-1,-1,-1,-1],"split_conditions":[4E0,1.018E1,7.595052E2,-9.51E0,9E0,1.274E1,6.2973E3,-9.789095E-1,3.694843E-1,-2.171517E0,-8.185712E-1,8.863025E-1,-1.1799787E0,1.491466E0,2.597694E0],"split_indices":[21,10,3,5,20,10,6,0,0,0,0,0,0,0,0],"split_type":[0,0,0,0,0,0,0,0,0,0,0,0,0,0,0],"sum_hessian":[1.12E2,6.3E1,4.9E1,1.7E1,4.6E1,3.1E1,1.8E1,2E0,1.5E1,1.9E1,2.7E1,2.8E1,3E0,8E0,1E1],"tree_param":{"num_deleted":"0","num_feature":"22","num_nodes":"15","size_leaf_vector":"1"}},{"base_weights":[-5.5623894E0,-5.9732166E1,5.4846394E1,-1.1178144E2,-3.4355312E1,2.7085228E1,9.922769E1,-2.7988763E0,-1.9300478E0,-1.7891452E0,-4.0818334E-1,4.0388E-1,1.9086782E0,1.6777173E0,2.7432854E0],"categories":[],"categories_nodes":[],"categories_segments":[],"categories_sizes":[],"default_left":[0,0,0,0,0,0,0,0,0,0,0,0,0,0,0],"id":48,"left_children":[1,3,5,7,9,11,13,-1,-1,-1,-1,-1,-1,-1,-1],"loss_changes":[3.5997225E5,7.6518016E4,6.3990656E4,8.0749062E3,2.9867453E4,1.515699E4,1.1626297E4,0E0,0E0,0E0,0E0,0E0,0E0,0E0,0E0],"parents":[2147483647,0,0,1,1,2,2,3,3,4,4,5,5,6,6],"right_children":[2,4,6,8,10,12,14,-1,-1,-1,-1,-1,-1,-1,-1],"split_conditions":[6.270496E2,3.836868E2,7.542467E2,-7.8E-1,1.1216E3,1.384E1,3.98E0,-2.7988763E0,-1.9300478E0,-1.7891452E0,-4.0818334E-1,4.0388E-1,1.9086782E0,1.6777173E0,2.7432854E0],"split_indices":[0,0,0,5,6,5,12,0,0,0,0,0,0,0,0],"split_type":[0,0,0,0,0,0,0,0,0,0,0,0,0,0,0],"sum_hessian":[1.1E2,5.8E1,5.2E1,1.9E1,3.9E1,3.2E1,2E1,7E0,1.2E1,8E0,3.1E1,2.9E1,3E0,1.4E1,6E0],"tree_param":{"num_deleted":"0","num_feature":"22","num_nodes":"15","size_leaf_vector":"1"}},{"base_weights":[-1.1563327E0,-4.8285084E1,5.864916E1,-1.1377395E2,-2.554874E1,3.2703815E1,1.0367297E2,-2.839629E0,-1.9904431E0,-6.581618E-1,1.683437E0,1.6273739E0,5.24443E-1,1.4247516E0,2.4731944E0],"categories":[],"categories_nodes":[],"categories_segments":[],"categories_sizes":[],"default_left":[0,0,0,0,0,0,0,0,0,0,0,0,0,0,0],"id":49,"left_children":[1,3,5,7,9,11,13,-1,-1,-1,-1,-1,-1,-1,-1],"loss_changes":[3.32595E5,9.818761E4,6.065947E4,6.745797E3,3.8131684E4,1.0508379E4,1.1843141E4,0E0,0E0,0E0,0E0,0E0,0E0,0E0,0E0],"parents":[2147483647,0,0,1,1,2,2,3,3,4,4,5,5,6,6],"right_children":[2,4,6,8,10,12,14,-1,-1,-1,-1,-1,-1,-1,-1],"split_conditions":[6.270496E2,3.836868E2,8.101244E2,4E0,1.37E2,6.997E2,4.7E-1,-2.839629E0,-1.9904431E0,-6.581618E-1,1.683437E0,1.6273739E0,5.24443E-1,1.4247516E0,2.4731944E0],"split_indices":[0,0,0,19,14,6,5,0,0,0,0,0,0,0,0],"split_type":[0,0,0,0,0,0,0,0,0,0,0,0,0,0,0],"sum_hessian":[1.18E2,6.6E1,5.2E1,1.7E1,4.9E1,3.3E1,1.9E1,6E0,1.1E1,4.6E1,3E0,4E0,2.9E1,7E0,1.2E1],"tree_param":{"num_deleted":"0","num_feature":"22","num_nodes":"15","size_leaf_vector":"1"}},{"base_weights":[-3.6198478E0,-4.7991627E1,5.2920536E1,-8.95383E1,-2.2007069E1,2.855975E1,9.754115E1,-2.158595E0,-1.2683465E0,-5.9137356E-1,1.3798656E0,3.1951645E-1,1.0851256E0,1.7337784E0,3.1107972E0],"categories":[],"categories_nodes":[],"categories_segments":[],"categories_sizes":[],"default_left":[0,0,0,0,0,0,0,0,0,0,0,0,0,0,0],"id":50,"left_children":[1,3,5,7,9,11,13,-1,-1,-1,-1,-1,-1,-1,-1],"loss_changes":[2.9102766E5,7.010469E4,5.5358984E4,1.1606656E4,2.6631494E4,1.0566047E4,1.15624375E4,0E0,0E0,0E0,0E0,0E0,0E0,0E0,0E0],"parents":[2147483647,0,0,1,1,2,2,3,3,4,4,5,5,6,6],"right_children":[2,4,6,8,10,12,14,-1,-1,-1,-1,-1,-1,-1,-1],"split_conditions":[6.270496E2,4.257206E2,7.542467E2,3.926985E2,6.9E-1,6.962905E2,9.113978E2,-2.158595E0,-1.2683465E0,-5.9137356E-1,1.3798656E0,3.1951645E-1,1.0851256E0,1.7337784E0,3.1107972E0],"split_indices":[0,4,0,0,16,1,1,0,0,0,0,0,0,0,0],"split_type":[0,0,0,0,0,0,0,0,0,0,0,0,0,0,0],"sum_hessian":[1.16E2,6.5E1,5.1E1,2.5E1,4E1,3.3E1,1.8E1,1.5E1,1E1,3.7E1,3E0,2.2E1,1.1E1,1.5E1,3E0],"tree_param":{"num_deleted":"0","num_feature":"22","num_nodes":"15","size_leaf_vector":"1"}},{"base_weights":[-2.7845206E0,-4.8594948E1,5.2013645E1,-9.7706696E1,-3.0538641E1,3.2430992E1,1.05488884E2,-2.1431618E0,-1.5080706E0,-4.504298E-1,-1.7917342E0,3.8727477E-1,1.0675776E0,1.4322172E0,2.374595E0],"categories":[],"categories_nodes":[],"categories_segments":[],"categories_sizes":[],"default_left":[0,0,0,0,0,0,0,0,0,0,0,0,0,0,0],"id":51,"left_children":[1,3,5,7,9,11,13,-1,-1,-1,-1,-1,-1,-1,-1],"loss_changes":[3.0877828E5,5.9334312E4,5.85565E4,3.4587344E3,2.3328234E4,1.1095098E4,6.2800312E3,0E0,0E0,0E0,0E0,0E0,0E0,0E0,0E0],"parents":[2147483647,0,0,1,1,2,2,3,3,4,4,5,5,6,6],"right_children":[2,4,6,8,10,12,14,-1,-1,-1,-1,-1,-1,-1,-1],"split_conditions":[6.270496E2,3.926985E2,8.312051E2,-1.49E-1,6.26939E2,6.962905E2,6.2973E3,-2.1431618E0,-1.5080706E0,-4.504298E-1,-1.7917342E0,3.8727477E-1,1.0675776E0,1.4322172E0,2.374595E0],"split_indices":[0,0,1,16,0,0,6,0,0,0,0,0,0,0,0],"split_type":[0,0,0,0,0,0,0,0,0,0,0,0,0,0,0],"sum_hessian":[1.23E2,6.7E1,5.6E1,1.8E1,4.9E1,4.1E1,1.5E1,1.3E1,5E0,4.3E1,6E0,2.5E1,1.6E1,4E0,1.1E1],"tree_param":{"num_deleted":"0","num_feature":"22","num_nodes":"15","size_leaf_vector":"1"}},{"base_weights":[-9.41781E0,-5.323614E1,4.6907894E1,-1.0787107E2,-3.1365274E1,2.3113117E1,7.860101E1,-2.7085128E0,-1.9027709E0,-7.9611707E-1,1.6662993E0,2.9820994E-1,8.818757E-1,1.7105682E-1,1.730799E0],"categories":[],"categories_nodes":[],"categories_segments":[],"categories_sizes":[],"default_left":[0,0,0,0,0,0,0,0,0,0,0,0,0,0,0],"id":52,"left_children":[1,3,5,7,9,11,13,-1,-1,-1,-1,-1,-1,-1,-1],"loss_changes":[2.764406E5,7.519316E4,3.6890375E4,6.2552344E3,4.1926848E4,4.773008E3,1.0760445E4,0E0,0E0,0E0,0E0,0E0,0E0,0E0,0E0],"parents":[2147483647,0,0,1,1,2,2,3,3,4,4,5,5,6,6],"right_children":[2,4,6,8,10,12,14,-1,-1,-1,-1,-1,-1,-1,-1],"split_conditions":[6.270496E2,3.926985E2,7.54185E2,4E0,1.37E2,6.929103E2,3.79E0,-2.7085128E0,-1.9027709E0,-7.9611707E-1,1.6662993E0,2.9820994E-1,8.818757E-1,1.7105682E-1,1.730799E0],"split_indices":[0,0,0,19,14,0,12,0,0,0,0,0,0,0,0],"split_type":[0,0,0,0,0,0,0,0,0,0,0,0,0,0,0],"sum_hessian":[1.12E2,6.3E1,4.9E1,1.8E1,4.5E1,2.8E1,2.1E1,6E0,1.2E1,4.2E1,3E0,2E1,8E0,2E0,1.9E1],"tree_param":{"num_deleted":"0","num_feature":"22","num_nodes":"15","size_leaf_vector":"1"}},{"base_weights":[2.9637825E0,-4.3257362E1,6.4603485E1,-1.0777066E2,-2.3492796E1,4.827787E1,1.0419685E2,-2.743592E0,-1.8819163E0,-2.003891E0,-3.3667472E-1,1.1823144E0,2.87753E-1,1.8601849E0,2.965577E0],"categories":[],"categories_nodes":[],"categories_segments":[],"categories_sizes":[],"default_left":[0,0,0,0,0,0,0,0,0,0,0,0,0,0,0],"id":53,"left_children":[1,3,5,7,9,11,13,-1,-1,-1,-1,-1,-1,-1,-1],"loss_changes":[3.1911828E5,8.1525125E4,3.0927984E4,5.955E3,2.5161834E4,1.2013117E4,6.9619062E3,0E0,0E0,0E0,0E0,0E0,0E0,0E0,0E0],"parents":[2147483647,0,0,1,1,2,2,3,3,4,4,5,5,6,6],"right_children":[2,4,6,8,10,12,14,-1,-1,-1,-1,-1,-1,-1,-1],"split_conditions":[4E0,3.926985E2,8.312051E2,4E0,1E0,8.81E0,1.248E1,-2.743592E0,-1.8819163E0,-2.003891E0,-3.3667472E-1,1.1823144E0,2.87753E-1,1.8601849E0,2.965577E0],"split_indices":[21,0,1,19,19,8,10,0,0,0,0,0,0,0,0],"split_type":[0,0,0,0,0,0,0,0,0,0,0,0,0,0,0],"sum_hessian":[1.12E2,6.4E1,4.8E1,1.5E1,4.9E1,3.4E1,1.4E1,5E0,1E1,4E0,4.5E1,2.6E1,8E0,1.1E1,3E0],"tree_param":{"num_deleted":"0","num_feature":"22","num_nodes":"15","size_leaf_vector":"1"}},{"base_weights":[-7.277576E-1,-3.846651E1,5.16318E1,-1.4850177E1,-9.9332855E1,3.156135E1,1.01754234E2,1.4449644E-1,-1.3050956E0,-2.9579256E0,-1.6571257E0,3.7649363E-1,1.2818866E0,1.8971646E0,2.9520018E0],"categories":[],"categories_nodes":[],"categories_segments":[],"categories_sizes":[],"default_left":[0,0,0,0,0,0,0,0,0,0,0,0,0,0,0],"id":54,"left_children":[1,3,5,7,9,11,13,-1,-1,-1,-1,-1,-1,-1,-1],"loss_changes":[2.311903E5,9.767857E4,4.9210086E4,5.3954684E4,1.5240906E4,1.4401805E4,4.5672812E3,0E0,0E0,0E0,0E0,0E0,0E0,0E0,0E0],"parents":[2147483647,0,0,1,1,2,2,3,3,4,4,5,5,6,6],"right_children":[2,4,6,8,10,12,14,-1,-1,-1,-1,-1,-1,-1,-1],"split_conditions":[6.375166E2,3.94E0,8.312051E2,1.69808E4,4E0,5.8E-1,9.482448E2,1.4449644E-1,-1.3050956E0,-2.9579256E0,-1.6571257E0,3.7649363E-1,1.2818866E0,1.8971646E0,2.9520018E0],"split_indices":[1,12,1,6,19,5,1,0,0,0,0,0,0,0,0],"split_type":[0,0,0,0,0,0,0,0,0,0,0,0,0,0,0],"sum_hessian":[1.17E2,6.8E1,4.9E1,4.9E1,1.9E1,3.5E1,1.4E1,3.4E1,1.5E1,5E0,1.4E1,2.5E1,1E1,1.2E1,2E0],"tree_param":{"num_deleted":"0","num_feature":"22","num_nodes":"15","size_leaf_vector":"1"}},{"base_weights":[-2.1610773E0,-4.788983E1,5.252228E1,-8.222271E1,-2.060494E1,4.125386E1,1.129911E2,-2.0832598E0,-1.3127745E0,-2.6288462E-1,-2.839171E0,4.9384874E-1,1.183069E0,1.9995891E0,3.094041E0],"categories":[],"categories_nodes":[],"categories_segments":[],"categories_sizes":[],"default_left":[0,0,0,0,0,0,0,0,0,0,0,0,0,0,0],"id":55,"left_children":[1,3,5,7,9,11,13,-1,-1,-1,-1,-1,-1,-1,-1],"loss_changes":[2.8007466E5,5.7080812E4,3.4651984E4,9.650391E3,3.0812135E4,1.2534609E4,4.2758203E3,0E0,0E0,0E0,0E0,0E0,0E0,0E0,0E0],"parents":[2147483647,0,0,1,1,2,2,3,3,4,4,5,5,6,6],"right_children":[2,4,6,8,10,12,14,-1,-1,-1,-1,-1,-1,-1,-1],"split_conditions":[6.270496E2,4.925329E2,8.695661E2,3.494688E2,1.229E1,7.218254E2,9.682268E2,-2.0832598E0,-1.3127745E0,-2.6288462E-1,-2.839171E0,4.9384874E-1,1.183069E0,1.9995891E0,3.094041E0],"split_indices":[0,0,3,0,10,0,0,0,0,0,0,0,0,0,0],"split_type":[0,0,0,0,0,0,0,0,0,0,0,0,0,0,0],"sum_hessian":[1.12E2,6.1E1,5.1E1,2.7E1,3.4E1,4.3E1,8E0,1.2E1,1.5E1,3.2E1,2E0,2.2E1,2.1E1,6E0,2E0],"tree_param":{"num_deleted":"0","num_feature":"22","num_nodes":"15","size_leaf_vector":"1"}},{"base_weights":[2.3664694E0,-4.0123764E1,6.067988E1,-9.265576E1,-1.8843403E1,3.72462E1,8.10264E1,-1.6954931E0,-3.1348855E0,-1.9253048E0,-2.1633905E-1,1.618711E0,4.595353E-1,1.2219019E0,2.0773492E0],"categories":[],"categories_nodes":[],"categories_segments":[],"categories_sizes":[],"default_left":[0,0,0,0,0,0,0,0,0,0,0,0,0,0,0],"id":56,"left_children":[1,3,5,7,9,11,13,-1,-1,-1,-1,-1,-1,-1,-1],"loss_changes":[2.5275239E5,6.588915E4,2.042739E4,8.897734E3,2.6052852E4,1.2382834E4,1.024975E4,0E0,0E0,0E0,0E0,0E0,0E0,0E0,0E0],"parents":[2147483647,0,0,1,1,2,2,3,3,4,4,5,5,6,6],"right_children":[2,4,6,8,10,12,14,-1,-1,-1,-1,-1,-1,-1,-1],"split_conditions":[4E0,4.69352E2,7.515983E2,4.69352E2,1E0,-7.83E-1,4.7E-1,-1.6954931E0,-3.1348855E0,-1.9253048E0,-2.1633905E-1,1.618711E0,4.595353E-1,1.2219019E0,2.0773492E0],"split_indices":[21,0,0,2,19,17,5,0,0,0,0,0,0,0,0],"split_type":[0,0,0,0,0,0,0,0,0,0,0,0,0,0,0],"sum_hessian":[1.02E2,5.9E1,4.3E1,1.7E1,4.2E1,2E1,2.3E1,1.5E1,2E0,4E0,3.8E1,5E0,1.5E1,1.2E1,1.1E1],"tree_param":{"num_deleted":"0","num_feature":"22","num_nodes":"15","size_leaf_vector":"1"}},{"base_weights":[-7.6830363E0,-4.2527966E1,5.0647526E1,-2.423042E1,-9.35296E1,3.0795769E1,8.765587E1,2.4180733E-1,-1.139906E0,-2.8123927E0,-1.5505191E0,2.2492917E-1,1.0144501E0,1.4506276E0,2.6261272E0],"categories":[],"categories_nodes":[],"categories_segments":[],"categories_sizes":[],"default_left":[0,0,0,0,0,0,0,0,0,0,0,0,0,0,0],"id":57,"left_children":[1,3,5,7,9,11,13,-1,-1,-1,-1,-1,-1,-1,-1],"loss_changes":[2.3374383E5,6.711871E4,3.1517578E4,6.2210043E4,1.4343406E4,1.0723158E4,9.880641E3,0E0,0E0,0E0,0E0,0E0,0E0,0E0,0E0],"parents":[2147483647,0,0,1,1,2,2,3,3,4,4,5,5,6,6],"right_children":[2,4,6,8,10,12,14,-1,-1,-1,-1,-1,-1,-1,-1],"split_conditions":[6.543075E2,3.94E0,9.3E-1,1.1044E4,4E0,3.84E0,1.8E1,2.4180733E-1,-1.139906E0,-2.8123927E0,-1.5505191E0,2.2492917E-1,1.0144501E0,1.4506276E0,2.6261272E0],"split_indices":[3,12,5,6,19,12,19,0,0,0,0,0,0,0,0],"split_type":[0,0,0,0,0,0,0,0,0,0,0,0,0,0,0],"sum_hessian":[1.15E2,7.2E1,4.3E1,5.3E1,1.9E1,2.8E1,1.5E1,2.5E1,2.8E1,5E0,1.4E1,1.4E1,1.4E1,1.1E1,4E0],"tree_param":{"num_deleted":"0","num_feature":"22","num_nodes":"15","size_leaf_vector":"1"}},{"base_weights":[-1.655089E0,-8.180752E1,2.0970638E1,-1.1453552E2,-6.539449E1,-2.3678386E0,6.3774803E1,-3.0152402E0,-2.0673382E0,-1.726608E0,-9.053774E-1,4.4124037E-1,-6.3485384E-1,1.3337237E-1,1.5139589E0],"categories":[],"categories_nodes":[],"categories_segments":[],"categories_sizes":[],"default_left":[0,0,0,0,0,0,0,0,0,0,0,0,0,0,0],"id":58,"left_children":[1,3,5,7,9,11,13,-1,-1,-1,-1,-1,-1,-1,-1],"loss_changes":[1.9771512E5,1.2772125E4,8.495211E4,3.1652812E3,6.568375E3,3.8943992E4,1.9507219E4,0E0,0E0,0E0,0E0,0E0,0E0,0E0,0E0],"parents":[2147483647,0,0,1,1,2,2,3,3,4,4,5,5,6,6],"right_children":[2,4,6,8,10,12,14,-1,-1,-1,-1,-1,-1,-1,-1],"split_conditions":[4.942467E2,-7.8E-1,5E0,3.238527E2,3.499558E2,4.662E3,-3.14E0,-3.0152402E0,-2.0673382E0,-1.726608E0,-9.053774E-1,4.4124037E-1,-6.3485384E-1,1.3337237E-1,1.5139589E0],"split_indices":[0,5,21,0,4,7,5,0,0,0,0,0,0,0,0],"split_type":[0,0,0,0,0,0,0,0,0,0,0,0,0,0,0],"sum_hessian":[1.09E2,2.4E1,8.5E1,8E0,1.6E1,5.5E1,3E1,2E0,6E0,8E0,8E0,3E1,2.5E1,5E0,2.5E1],"tree_param":{"num_deleted":"0","num_feature":"22","num_nodes":"15","size_leaf_vector":"1"}},{"base_weights":[-4.023262E0,-4.295813E1,4.7358646E1,-6.836969E1,-1.0513706E1,2.356386E1,7.7611275E1,-1.8675321E0,-1.0022225E0,-1.8493686E0,4.9952846E-2,7.215454E-1,-6.592431E-1,-1.1338594E-1,1.731134E0],"categories":[],"categories_nodes":[],"categories_segments":[],"categories_sizes":[],"default_left":[0,0,0,0,0,0,0,0,0,0,0,0,0,0,0],"id":59,"left_children":[1,3,5,7,9,11,13,-1,-1,-1,-1,-1,-1,-1,-1],"loss_changes":[2.3206897E5,5.436832E4,3.5930945E4,1.6679172E4,3.070015E4,1.934284E4,1.5347344E4,0E0,0E0,0E0,0E0,0E0,0E0,0E0,0E0],"parents":[2147483647,0,0,1,1,2,2,3,3,4,4,5,5,6,6],"right_children":[2,4,6,8,10,12,14,-1,-1,-1,-1,-1,-1,-1,-1],"split_conditions":[4E0,5.319149E2,7.542467E2,3.926985E2,1E0,5.74E-1,-1.089E1,-1.8675321E0,-1.0022225E0,-1.8493686E0,4.9952846E-2,7.215454E-1,-6.592431E-1,-1.1338594E-1,1.731134E0],"split_indices":[21,0,0,0,19,15,5,0,0,0,0,0,0,0,0],"split_type":[0,0,0,0,0,0,0,0,0,0,0,0,0,0,0],"sum_hessian":[1.16E2,6.6E1,5E1,3.7E1,2.9E1,2.8E1,2.2E1,1.6E1,2.1E1,4E0,2.5E1,2.3E1,5E0,2E0,2E1],"tree_param":{"num_deleted":"0","num_feature":"22","num_nodes":"15","size_leaf_vector":"1"}},{"base_weights":[3.767792E0,-3.726625E1,5.507114E1,-7.609017E1,-1.4523094E1,3.6426247E1,8.741616E1,-2.093985E0,-1.3836405E0,-2.784641E0,-1.6421862E-1,1.7793393E0,5.887734E-1,2.77314E0,1.4891683E0],"categories":[],"categories_nodes":[],"categories_segments":[],"categories_sizes":[],"default_left":[0,0,0,0,0,0,0,0,0,0,0,0,0,0,0],"id":60,"left_children":[1,3,5,7,9,11,13,-1,-1,-1,-1,-1,-1,-1,-1],"loss_changes":[2.4632527E5,5.733979E4,3.1281531E4,4.8257656E3,3.2226068E4,1.2246461E4,1.2724906E4,0E0,0E0,0E0,0E0,0E0,0E0,0E0,0E0],"parents":[2147483647,0,0,1,1,2,2,3,3,4,4,5,5,6,6],"right_children":[2,4,6,8,10,12,14,-1,-1,-1,-1,-1,-1,-1,-1],"split_conditions":[4E0,5.110399E2,9.5191E3,3.259394E2,7.958E2,6.475E2,1.30507E4,-2.093985E0,-1.3836405E0,-2.784641E0,-1.6421862E-1,1.7793393E0,5.887734E-1,2.77314E0,1.4891683E0],"split_indices":[21,3,6,3,6,6,7,0,0,0,0,0,0,0,0],"split_type":[0,0,0,0,0,0,0,0,0,0,0,0,0,0,0],"sum_hessian":[1.17E2,6.5E1,5.2E1,2.4E1,4.1E1,3.3E1,1.9E1,5E0,1.9E1,2E0,3.9E1,4E0,2.9E1,4E0,1.5E1],"tree_param":{"num_deleted":"0","num_feature":"22","num_nodes":"15","size_leaf_vector":"1"}},{"base_weights":[-4.9339876E0,-4.3660805E1,4.2893307E1,-8.558107E1,-2.554243E1,3.034198E1,9.4278564E1,-2.2903943E0,-1.4605017E0,-6.350894E-1,2.0129898E0,3.2900548E-1,9.368682E-1,2.66465E0,1.7049372E0],"categories":[],"categories_nodes":[],"categories_segments":[],"categories_sizes":[],"default_left":[0,0,0,0,0,0,0,0,0,0,0,0,0,0,0],"id":61,"left_children":[1,3,5,7,9,11,13,-1,-1,-1,-1,-1,-1,-1,-1],"loss_changes":[2.1115852E5,4.77819E4,3.281478E4,6.858625E3,3.307184E4,9.252609E3,3.5083281E3,0E0,0E0,0E0,0E0,0E0,0E0,0E0,0E0],"parents":[2147483647,0,0,1,1,2,2,3,3,4,4,5,5,6,6],"right_children":[2,4,6,8,10,12,14,-1,-1,-1,-1,-1,-1,-1,-1],"split_conditions":[6.270496E2,3.926985E2,2.451E1,-7.8E-1,1.758E1,7.276746E2,1.3027E4,-2.2903943E0,-1.4605017E0,-6.350894E-1,2.0129898E0,3.2900548E-1,9.368682E-1,2.66465E0,1.7049372E0],"split_indices":[0,0,9,5,5,0,7,0,0,0,0,0,0,0,0],"split_type":[0,0,0,0,0,0,0,0,0,0,0,0,0,0,0],"sum_hessian":[1.14E2,6.3E1,5.1E1,1.9E1,4.4E1,4.1E1,1E1,6E0,1.3E1,4.2E1,2E0,2.2E1,1.9E1,2E0,8E0],"tree_param":{"num_deleted":"0","num_feature":"22","num_nodes":"15","size_leaf_vector":"1"}},{"base_weights":[1.7595863E0,-2.2526337E1,6.5232735E1,-6.540313E1,-4.4609613E0,4.1102066E1,8.5063255E1,-1.6050158E0,-9.1252446E-1,-2.3462274E0,3.5383623E-2,6.1643636E-1,1.597473E0,1.4391234E0,2.1019945E0],"categories":[],"categories_nodes":[],"categories_segments":[],"categories_sizes":[],"default_left":[0,0,0,0,0,0,0,0,0,0,0,0,0,0,0],"id":62,"left_children":[1,3,5,7,9,11,13,-1,-1,-1,-1,-1,-1,-1,-1],"loss_changes":[1.7267958E5,6.2701227E4,1.4753906E4,6.813664E3,3.9782375E4,5.5455273E3,4.3480703E3,0E0,0E0,0E0,0E0,0E0,0E0,0E0,0E0],"parents":[2147483647,0,0,1,1,2,2,3,3,4,4,5,5,6,6],"right_children":[2,4,6,8,10,12,14,-1,-1,-1,-1,-1,-1,-1,-1],"split_conditions":[5E0,4.942467E2,7.313843E2,3.926985E2,1E0,1.6428E4,2.51E1,-1.6050158E0,-9.1252446E-1,-2.3462274E0,3.5383623E-2,6.1643636E-1,1.597473E0,1.4391234E0,2.1019945E0],"split_indices":[21,0,4,0,20,6,9,0,0,0,0,0,0,0,0],"split_type":[0,0,0,0,0,0,0,0,0,0,0,0,0,0,0],"sum_hessian":[1.12E2,8.1E1,3.1E1,2.4E1,5.7E1,1.4E1,1.7E1,1.4E1,1E1,3E0,5.4E1,1.1E1,3E0,1E1,7E0],"tree_param":{"num_deleted":"0","num_feature":"22","num_nodes":"15","size_leaf_vector":"1"}},{"base_weights":[-1.4408586E0,-3.29756E1,4.369722E1,-1.9417767E1,-8.506486E1,2.1459673E1,7.577947E1,5.500608E-2,-9.15113E-1,-2.4840512E0,-1.4800692E0,8.479138E-2,8.363308E-1,1.1897233E0,2.3972268E0],"categories":[],"categories_nodes":[],"categories_segments":[],"categories_sizes":[],"default_left":[0,0,0,0,0,0,0,0,0,0,0,0,0,0,0],"id":63,"left_children":[1,3,5,7,9,11,13,-1,-1,-1,-1,-1,-1,-1,-1],"loss_changes":[1.5230508E5,4.4428266E4,3.133186E4,2.8848176E4,5.624586E3,8.974693E3,1.2887219E4,0E0,0E0,0E0,0E0,0E0,0E0,0E0,0E0],"parents":[2147483647,0,0,1,1,2,2,3,3,4,4,5,5,6,6],"right_children":[2,4,6,8,10,12,14,-1,-1,-1,-1,-1,-1,-1,-1],"split_conditions":[4E0,1.611E1,8.4E-1,1.07187E4,4E0,1.1216E3,1.2E1,5.500608E-2,-9.15113E-1,-2.4840512E0,-1.4800692E0,8.479138E-2,8.363308E-1,1.1897233E0,2.3972268E0],"split_indices":[21,10,5,6,20,6,20,0,0,0,0,0,0,0,0],"split_type":[0,0,0,0,0,0,0,0,0,0,0,0,0,0,0],"sum_hessian":[1.07E2,6.3E1,4.4E1,5E1,1.3E1,2.6E1,1.8E1,2.7E1,2.3E1,3E0,1E1,1.4E1,1.2E1,1.3E1,5E0],"tree_param":{"num_deleted":"0","num_feature":"22","num_nodes":"15","size_leaf_vector":"1"}},{"base_weights":[3.4152265E0,-3.1122997E1,4.625394E1,-1.4929617E1,-8.181428E1,3.2581604E1,9.4660385E1,1.6340636E-1,-9.276704E-1,-2.5290115E0,-1.3255478E0,-1.0838398E0,7.5054586E-1,2.5794718E0,1.6517261E0],"categories":[],"categories_nodes":[],"categories_segments":[],"categories_sizes":[],"default_left":[0,0,0,0,0,0,0,0,0,0,0,0,0,0,0],"id":64,"left_children":[1,3,5,7,9,11,13,-1,-1,-1,-1,-1,-1,-1,-1],"loss_changes":[1.6572692E5,5.083574E4,3.301167E4,3.3747695E4,1.0370891E4,1.5795605E4,4.5040234E3,0E0,0E0,0E0,0E0,0E0,0E0,0E0,0E0],"parents":[2147483647,0,0,1,1,2,2,3,3,4,4,5,5,6,6],"right_children":[2,4,6,8,10,12,14,-1,-1,-1,-1,-1,-1,-1,-1],"split_conditions":[4E0,2.38E1,2.451E1,1.22045E4,4E0,-1.31E0,1.30507E4,1.6340636E-1,-9.276704E-1,-2.5290115E0,-1.3255478E0,-1.0838398E0,7.5054586E-1,2.5794718E0,1.6517261E0],"split_indices":[21,9,9,7,20,16,7,0,0,0,0,0,0,0,0],"split_type":[0,0,0,0,0,0,0,0,0,0,0,0,0,0,0],"sum_hessian":[1.12E2,6.2E1,5E1,4.7E1,1.5E1,3.9E1,1.1E1,2.7E1,2E1,4E0,1.1E1,2E0,3.7E1,3E0,8E0],"tree_param":{"num_deleted":"0","num_feature":"22","num_nodes":"15","size_leaf_vector":"1"}},{"base_weights":[1.2469057E0,-3.4211403E1,3.8549316E1,-8.440569E1,-1.7827951E1,1.5717257E1,6.6624306E1,-1.4867254E0,-2.5462983E0,-4.896708E-1,1.5088536E0,9.9553935E-2,7.925128E-1,1.1352836E0,2.2052898E0],"categories":[],"categories_nodes":[],"categories_segments":[],"categories_sizes":[],"default_left":[0,0,0,0,0,0,0,0,0,0,0,0,0,0,0],"id":65,"left_children":[1,3,5,7,9,11,13,-1,-1,-1,-1,-1,-1,-1,-1],"loss_changes":[1.5740678E5,5.0102117E4,3.7129266E4,6.5344766E3,2.7657928E4,8.1231226E3,1.131818E4,0E0,0E0,0E0,0E0,0E0,0E0,0E0,0E0],"parents":[2147483647,0,0,1,1,2,2,3,3,4,4,5,5,6,6],"right_children":[2,4,6,8,10,12,14,-1,-1,-1,-1,-1,-1,-1,-1],"split_conditions":[6.270496E2,3.926985E2,1.2E-1,4.69352E2,1.37E2,7.542467E2,2.51E1,-1.4867254E0,-2.5462983E0,-4.896708E-1,1.5088536E0,9.9553935E-2,7.925128E-1,1.1352836E0,2.2052898E0],"split_indices":[0,0,5,2,14,0,9,0,0,0,0,0,0,0,0],"split_type":[0,0,0,0,0,0,0,0,0,0,0,0,0,0,0],"sum_hessian":[1.19E2,6.1E1,5.8E1,1.5E1,4.6E1,3.2E1,2.6E1,1.2E1,3E0,4.3E1,3E0,2.2E1,1E1,2.1E1,5E0],"tree_param":{"num_deleted":"0","num_feature":"22","num_nodes":"15","size_leaf_vector":"1"}},{"base_weights":[-2.512274E0,-3.418871E1,4.1546055E1,-6.1445953E1,-5.1518483E0,2.1980633E1,7.488123E1,-1.9112221E0,-9.8406154E-1,-4.1477638E-1,3.877158E-1,6.586632E-2,9.0536886E-1,1.3840308E0,2.4290273E0],"categories":[],"categories_nodes":[],"categories_segments":[],"categories_sizes":[],"default_left":[0,0,0,0,0,0,0,0,0,0,0,0,0,0,0],"id":66,"left_children":[1,3,5,7,9,11,13,-1,-1,-1,-1,-1,-1,-1,-1],"loss_changes":[1.5351844E5,5.061546E4,2.994293E4,1.3797484E4,1.1687427E4,1.2439764E4,4.6569375E3,0E0,0E0,0E0,0E0,0E0,0E0,0E0,0E0],"parents":[2147483647,0,0,1,1,2,2,3,3,4,4,5,5,6,6],"right_children":[2,4,6,8,10,12,14,-1,-1,-1,-1,-1,-1,-1,-1],"split_conditions":[4E0,5.243449E2,7.595052E2,-7.8E-1,1.68E0,8.4E-1,2.653E1,-1.9112221E0,-9.8406154E-1,-4.1477638E-1,3.877158E-1,6.586632E-2,9.0536886E-1,1.3840308E0,2.4290273E0],"split_indices":[21,0,3,5,5,5,9,0,0,0,0,0,0,0,0],"split_type":[0,0,0,0,0,0,0,0,0,0,0,0,0,0,0],"sum_hessian":[1.1E2,6.4E1,4.6E1,3.3E1,3.1E1,2.9E1,1.7E1,9E0,2.4E1,1.9E1,1.2E1,1.6E1,1.3E1,1.5E1,2E0],"tree_param":{"num_deleted":"0","num_feature":"22","num_nodes":"15","size_leaf_vector":"1"}},{"base_weights":[-2.788442E0,-3.270177E1,4.54667E1,-6.3201576E1,-1.282573E1,2.8910622E1,8.089279E1,-1.6046937E0,-9.8407626E-1,-2.2465355E0,-1.08761325E-1,7.127771E-1,-1.238923E0,1.4040667E0,2.4483194E0],"categories":[],"categories_nodes":[],"categories_segments":[],"categories_sizes":[],"default_left":[0,0,0,0,0,0,0,0,0,0,0,0,0,0,0],"id":67,"left_children":[1,3,5,7,9,11,13,-1,-1,-1,-1,-1,-1,-1,-1],"loss_changes":[1.659976E5,4.2996094E4,2.5738578E4,6.533133E3,3.145365E4,1.7582377E4,6.2335938E3,0E0,0E0,0E0,0E0,0E0,0E0,0E0,0E0],"parents":[2147483647,0,0,1,1,2,2,3,3,4,4,5,5,6,6],"right_children":[2,4,6,8,10,12,14,-1,-1,-1,-1,-1,-1,-1,-1],"split_conditions":[4E0,5.036652E2,2.81E1,3.553942E2,1E0,3.98E0,1.8E1,-1.6046937E0,-9.8407626E-1,-2.2465355E0,-1.08761325E-1,7.127771E-1,-1.238923E0,1.4040667E0,2.4483194E0],"split_indices":[21,4,13,3,19,12,19,0,0,0,0,0,0,0,0],"split_type":[0,0,0,0,0,0,0,0,0,0,0,0,0,0,0],"sum_hessian":[1.15E2,7.1E1,4.4E1,2.8E1,4.3E1,3E1,1.4E1,1.3E1,1.5E1,3E0,4E1,2.8E1,2E0,1.1E1,3E0],"tree_param":{"num_deleted":"0","num_feature":"22","num_nodes":"15","size_leaf_vector":"1"}},{"base_weights":[1.1775053E0,-3.591757E1,4.0306545E1,-2.0377409E1,-7.666607E1,1.8455582E1,6.650058E1,-2.2211889E-2,-1.0402652E0,-1.2118187E0,-2.536009E0,2.874079E-1,1.5437126E0,1.1378008E0,1.695516E0],"categories":[],"categories_nodes":[],"categories_segments":[],"categories_sizes":[],"default_left":[0,0,0,0,0,0,0,0,0,0,0,0,0,0,0],"id":68,"left_children":[1,3,5,7,9,11,13,-1,-1,-1,-1,-1,-1,-1,-1],"loss_changes":[1.6402727E5,3.6668797E4,3.1428703E4,2.5292008E4,1.28751875E4,7.2493604E3,4.3316875E3,0E0,0E0,0E0,0E0,0E0,0E0,0E0,0E0],"parents":[2147483647,0,0,1,1,2,2,3,3,4,4,5,5,6,6],"right_children":[2,4,6,8,10,12,14,-1,-1,-1,-1,-1,-1,-1,-1],"split_conditions":[6.270496E2,3.88E0,7.54185E2,1.69808E4,4.69352E2,2.451E1,8.513676E2,-2.2211889E-2,-1.0402652E0,-1.2118187E0,-2.536009E0,2.874079E-1,1.5437126E0,1.1378008E0,1.695516E0],"split_indices":[0,12,0,6,2,9,4,0,0,0,0,0,0,0,0],"split_type":[0,0,0,0,0,0,0,0,0,0,0,0,0,0,0],"sum_hessian":[1.13E2,5.8E1,5.5E1,4.2E1,1.6E1,3E1,2.5E1,2.6E1,1.6E1,1.2E1,4E0,2.8E1,2E0,1.6E1,9E0],"tree_param":{"num_deleted":"0","num_feature":"22","num_nodes":"15","size_leaf_vector":"1"}},{"base_weights":[-1.4046007E0,-4.5791172E1,2.7715399E1,-8.469646E1,-3.0204838E1,1.81294E1,7.9407E1,-2.4033678E0,-1.4712073E0,9.9830955E-1,-7.234986E-1,-1.1680586E0,4.8801562E-1,2.5398476E0,1.3618298E0],"categories":[],"categories_nodes":[],"categories_segments":[],"categories_sizes":[],"default_left":[0,0,0,0,0,0,0,0,0,0,0,0,0,0,0],"id":69,"left_children":[1,3,5,7,9,11,13,-1,-1,-1,-1,-1,-1,-1,-1],"loss_changes":[1.3702467E5,2.5396828E4,3.1653664E4,4.709703E3,1.3692811E4,2.5080385E4,5.373793E3,0E0,0E0,0E0,0E0,0E0,0E0,0E0,0E0],"parents":[2147483647,0,0,1,1,2,2,3,3,4,4,5,5,6,6],"right_children":[2,4,6,8,10,12,14,-1,-1,-1,-1,-1,-1,-1,-1],"split_conditions":[5.573617E2,3.571945E2,2.944E1,3E0,2.26E1,1E0,3.88E0,-2.4033678E0,-1.4712073E0,9.9830955E-1,-7.234986E-1,-1.1680586E0,4.8801562E-1,2.5398476E0,1.3618298E0],"split_indices":[0,0,13,19,9,19,12,0,0,0,0,0,0,0,0],"split_type":[0,0,0,0,0,0,0,0,0,0,0,0,0,0,0],"sum_hessian":[1.06E2,4.2E1,6.4E1,1.2E1,3E1,5.4E1,1E1,3E0,9E0,2E0,2.8E1,4E0,5E1,2E0,8E0],"tree_param":{"num_deleted":"0","num_feature":"22","num_nodes":"15","size_leaf_vector":"1"}},{"base_weights":[2.7349722E0,-2.0289732E1,5.472005E1,-6.5960093E0,-7.416443E1,4.288262E1,8.883458E1,4.6612275E-1,-4.5451376E-1,-1.9807118E0,-1.2706499E0,2.6342264E-1,9.721022E-1,1.5159231E0,2.3296196E0],"categories":[],"categories_nodes":[],"categories_segments":[],"categories_sizes":[],"default_left":[0,0,0,0,0,0,0,0,0,0,0,0,0,0,0],"id":70,"left_children":[1,3,5,7,9,11,13,-1,-1,-1,-1,-1,-1,-1,-1],"loss_changes":[1.3647614E5,5.8234777E4,1.4049617E4,2.9934027E4,4.1769062E3,4.139328E3,3.1468672E3,0E0,0E0,0E0,0E0,0E0,0E0,0E0,0E0],"parents":[2147483647,0,0,1,1,2,2,3,3,4,4,5,5,6,6],"right_children":[2,4,6,8,10,12,14,-1,-1,-1,-1,-1,-1,-1,-1],"split_conditions":[6.924221E2,1.265E1,8.695661E2,1.221E1,4E0,2.259E1,1.8E1,4.6612275E-1,-4.5451376E-1,-1.9807118E0,-1.2706499E0,2.6342264E-1,9.721022E-1,1.5159231E0,2.3296196E0],"split_indices":[1,10,3,10,19,9,19,0,0,0,0,0,0,0,0],"split_type":[0,0,0,0,0,0,0,0,0,0,0,0,0,0,0],"sum_hessian":[1.14E2,7.9E1,3.5E1,6.3E1,1.6E1,2.6E1,9E0,2.2E1,4.1E1,5E0,1.1E1,4E0,2.2E1,6E0,3E0],"tree_param":{"num_deleted":"0","num_feature":"22","num_nodes":"15","size_leaf_vector":"1"}},{"base_weights":[2.6442406E0,-4.9710896E1,2.6707954E1,-5.8663616E1,1.7283073E1,1.1216121E1,7.486548E1,-1.6728067E0,-9.3489105E-1,1.121546E0,-4.1988146E-1,-3.3831416E-4,7.4544704E-1,1.2328258E0,1.7807671E0],"categories":[],"categories_nodes":[],"categories_segments":[],"categories_sizes":[],"default_left":[0,0,0,0,0,0,0,0,0,0,0,0,0,0,0],"id":71,"left_children":[1,3,5,7,9,11,13,-1,-1,-1,-1,-1,-1,-1,-1],"loss_changes":[1.3605636E5,2.0420062E4,5.515668E4,8.877133E3,5.8846895E3,1.6252508E4,3.233039E3,0E0,0E0,0E0,0E0,0E0,0E0,0E0,0E0],"parents":[2147483647,0,0,1,1,2,2,3,3,4,4,5,5,6,6],"right_children":[2,4,6,8,10,12,14,-1,-1,-1,-1,-1,-1,-1,-1],"split_conditions":[5.399169E2,1.747E1,7.909174E2,-7.8E-1,5.904E2,1.83E0,8.587693E2,-1.6728067E0,-9.3489105E-1,1.121546E0,-4.1988146E-1,-3.3831416E-4,7.4544704E-1,1.2328258E0,1.7807671E0],"split_indices":[0,5,0,5,6,5,3,0,0,0,0,0,0,0,0],"split_type":[0,0,0,0,0,0,0,0,0,0,0,0,0,0,0],"sum_hessian":[1.08E2,3.4E1,7.4E1,3E1,4E0,5.6E1,1.8E1,1E1,2E1,2E0,2E0,3.9E1,1.7E1,9E0,9E0],"tree_param":{"num_deleted":"0","num_feature":"22","num_nodes":"15","size_leaf_vector":"1"}},{"base_weights":[4.7973213E0,-2.6924635E1,4.2240593E1,8.065765E0,-4.1101154E1,2.7037388E1,7.7667175E1,-2.999602E-1,3.560937E-1,-6.4610994E-1,-1.9145805E0,1.5736141E0,4.1120437E-1,2.3217094E0,1.287078E0],"categories":[],"categories_nodes":[],"categories_segments":[],"categories_sizes":[],"default_left":[0,0,0,0,0,0,0,0,0,0,0,0,0,0,0],"id":72,"left_children":[1,3,5,7,9,11,13,-1,-1,-1,-1,-1,-1,-1,-1],"loss_changes":[1.2948099E5,2.9287586E4,2.6865086E4,3.7565583E3,2.0359508E4,1.1776564E4,7.64275E3,0E0,0E0,0E0,0E0,0E0,0E0,0E0,0E0],"parents":[2147483647,0,0,1,1,2,2,3,3,4,4,5,5,6,6],"right_children":[2,4,6,8,10,12,14,-1,-1,-1,-1,-1,-1,-1,-1],"split_conditions":[4E0,2.285E1,9.5191E3,1.3302E3,6.2309155E2,6.853E2,1.30507E4,-2.999602E-1,3.560937E-1,-6.4610994E-1,-1.9145805E0,1.5736141E0,4.1120437E-1,2.3217094E0,1.287078E0],"split_indices":[21,9,6,7,2,6,7,0,0,0,0,0,0,0,0],"split_type":[0,0,0,0,0,0,0,0,0,0,0,0,0,0,0],"sum_hessian":[1.09E2,5.9E1,5E1,1.7E1,4.2E1,3.5E1,1.5E1,5E0,1.2E1,3.6E1,6E0,4E0,3.1E1,4E0,1.1E1],"tree_param":{"num_deleted":"0","num_feature":"22","num_nodes":"15","size_leaf_vector":"1"}},{"base_weights":[2.0133357E0,-2.8097857E1,4.135381E1,-6.859477E1,-1.3435218E1,4.7722626E1,-4.191922E0,-1.8895497E0,-1.2237955E0,-1.5594901E0,-1.5031157E-1,8.701563E-1,1.8431695E0,-4.397424E-1,6.200418E-1],"categories":[],"categories_nodes":[],"categories_segments":[],"categories_sizes":[],"default_left":[0,0,0,0,0,0,0,0,0,0,0,0,0,0,0],"id":73,"left_children":[1,3,5,7,9,11,13,-1,-1,-1,-1,-1,-1,-1,-1],"loss_changes":[1.3387097E5,3.795369E4,1.4240172E4,3.2544297E3,1.7912168E4,8.412883E3,3.7007886E3,0E0,0E0,0E0,0E0,0E0,0E0,0E0,0E0],"parents":[2147483647,0,0,1,1,2,2,3,3,4,4,5,5,6,6],"right_children":[2,4,6,8,10,12,14,-1,-1,-1,-1,-1,-1,-1,-1],"split_conditions":[4E0,4.114009E2,8.083E2,4E0,1E0,9.113978E2,2.351E1,-1.8895497E0,-1.2237955E0,-1.5594901E0,-1.5031157E-1,8.701563E-1,1.8431695E0,-4.397424E-1,6.200418E-1],"split_indices":[21,0,11,19,19,1,9,0,0,0,0,0,0,0,0],"split_type":[0,0,0,0,0,0,0,0,0,0,0,0,0,0,0],"sum_hessian":[1.13E2,6.4E1,4.9E1,1.7E1,4.7E1,4.3E1,6E0,4E0,1.3E1,4E0,4.3E1,3.9E1,4E0,4E0,2E0],"tree_param":{"num_deleted":"0","num_feature":"22","num_nodes":"15","size_leaf_vector":"1"}},{"base_weights":[9.0719223E-1,-1.9337347E1,4.693375E1,-3.0233587E1,1.78026E1,2.4788492E1,6.773636E1,-7.5120866E-1,2.7947375E-1,1.9738483E0,1.4210102E-1,-3.1476772E-1,6.1633873E-1,1.1730312E0,1.9810368E0],"categories":[],"categories_nodes":[],"categories_segments":[],"categories_sizes":[],"default_left":[0,0,0,0,0,0,0,0,0,0,0,0,0,0,0],"id":74,"left_children":[1,3,5,7,9,11,13,-1,-1,-1,-1,-1,-1,-1,-1],"loss_changes":[1.0065285E5,3.036064E4,1.5145477E4,1.8103691E4,1.4592429E4,3.7725615E3,4.8376406E3,0E0,0E0,0E0,0E0,0E0,0E0,0E0,0E0],"parents":[2147483647,0,0,1,1,2,2,3,3,4,4,5,5,6,6],"right_children":[2,4,6,8,10,12,14,-1,-1,-1,-1,-1,-1,-1,-1],"split_conditions":[6.846799E2,5.868E2,9.3E-1,6.366534E2,5.049058E2,-1.089E1,1.8E1,-7.5120866E-1,2.7947375E-1,1.9738483E0,1.4210102E-1,-3.1476772E-1,6.1633873E-1,1.1730312E0,1.9810368E0],"split_indices":[1,11,5,3,1,5,20,0,0,0,0,0,0,0,0],"split_type":[0,0,0,0,0,0,0,0,0,0,0,0,0,0,0],"sum_hessian":[1.08E2,7.5E1,3.3E1,5.8E1,1.7E1,1.6E1,1.7E1,5E1,8E0,2E0,1.5E1,2E0,1.4E1,1.3E1,4E0],"tree_param":{"num_deleted":"0","num_feature":"22","num_nodes":"15","size_leaf_vector":"1"}},{"base_weights":[-8.987487E-1,-3.0747108E1,3.0997921E1,-1.5114906E1,-6.892053E1,1.3391761E1,5.591226E1,1.1329659E0,-4.4846055E-1,-2.2248163E0,-1.0648112E0,4.940775E-2,7.290783E-1,-1.2998128E-1,1.3059253E0],"categories":[],"categories_nodes":[],"categories_segments":[],"categories_sizes":[],"default_left":[0,0,0,0,0,0,0,0,0,0,0,0,0,0,0],"id":75,"left_children":[1,3,5,7,9,11,13,-1,-1,-1,-1,-1,-1,-1,-1],"loss_changes":[1.1425123E5,3.6947156E4,2.5400016E4,2.245318E4,1.1895586E4,8.461653E3,1.3413844E4,0E0,0E0,0E0,0E0,0E0,0E0,0E0,0E0],"parents":[2147483647,0,0,1,1,2,2,3,3,4,4,5,5,6,6],"right_children":[2,4,6,8,10,12,14,-1,-1,-1,-1,-1,-1,-1,-1],"split_conditions":[6.279673E2,3.88E0,7.542467E2,-9.63E-1,4E0,8.4E-1,-9.65E0,1.1329659E0,-4.4846055E-1,-2.2248163E0,-1.0648112E0,4.940775E-2,7.290783E-1,-1.2998128E-1,1.3059253E0],"split_indices":[0,12,0,15,19,5,5,0,0,0,0,0,0,0,0],"split_type":[0,0,0,0,0,0,0,0,0,0,0,0,0,0,0],"sum_hessian":[1.2E2,6.2E1,5.8E1,4.4E1,1.8E1,3.4E1,2.4E1,4E0,4E1,5E0,1.3E1,2.3E1,1.1E1,3E0,2.1E1],"tree_param":{"num_deleted":"0","num_feature":"22","num_nodes":"15","size_leaf_vector":"1"}},{"base_weights":[1.6562561E0,-3.1169605E1,3.7589832E1,-1.9669817E1,-6.408941E1,1.095014E1,5.2457882E1,-7.9377514E-1,-1.5935645E-2,-1.0502898E0,-2.2466373E0,1.3571615E0,-1.8472326E-1,7.236246E-1,1.3183603E0],"categories":[],"categories_nodes":[],"categories_segments":[],"categories_sizes":[],"default_left":[0,0,0,0,0,0,0,0,0,0,0,0,0,0,0],"id":76,"left_children":[1,3,5,7,9,11,13,-1,-1,-1,-1,-1,-1,-1,-1],"loss_changes":[1.3093858E5,2.1906008E4,2.095454E4,1.6007482E4,8.391527E3,2.1618473E4,7.244875E3,0E0,0E0,0E0,0E0,0E0,0E0,0E0,0E0],"parents":[2147483647,0,0,1,1,2,2,3,3,4,4,5,5,6,6],"right_children":[2,4,6,8,10,12,14,-1,-1,-1,-1,-1,-1,-1,-1],"split_conditions":[4E0,2.38E1,6.962905E2,5.376332E2,4.69352E2,-8.92E-1,9.3E-1,-7.9377514E-1,-1.5935645E-2,-1.0502898E0,-2.2466373E0,1.3571615E0,-1.8472326E-1,7.236246E-1,1.3183603E0],"split_indices":[21,9,1,3,2,17,5,0,0,0,0,0,0,0,0],"split_type":[0,0,0,0,0,0,0,0,0,0,0,0,0,0,0],"sum_hessian":[1.11E2,5.8E1,5.3E1,4.3E1,1.5E1,1.9E1,3.4E1,2.1E1,2.2E1,1.2E1,3E0,5E0,1.4E1,1.5E1,1.9E1],"tree_param":{"num_deleted":"0","num_feature":"22","num_nodes":"15","size_leaf_vector":"1"}},{"base_weights":[2.8706658E-1,-2.511167E1,3.2751648E1,-1.2413237E1,-7.077905E1,2.3421015E1,7.37347E1,7.283534E-2,-6.8555075E-1,-2.0877275E0,-1.1830466E0,5.703315E-1,-8.7258196E-1,2.078612E0,1.2281688E0],"categories":[],"categories_nodes":[],"categories_segments":[],"categories_sizes":[],"default_left":[0,0,0,0,0,0,0,0,0,0,0,0,0,0,0],"id":77,"left_children":[1,3,5,7,9,11,13,-1,-1,-1,-1,-1,-1,-1,-1],"loss_changes":[1.01428586E5,3.9963793E4,2.058957E4,1.8742188E4,5.8292344E3,1.4387391E4,3.6497266E3,0E0,0E0,0E0,0E0,0E0,0E0,0E0,0E0],"parents":[2147483647,0,0,1,1,2,2,3,3,4,4,5,5,6,6],"right_children":[2,4,6,8,10,12,14,-1,-1,-1,-1,-1,-1,-1,-1],"split_conditions":[4E0,1.611E1,2.451E1,1.22045E4,4E0,3.94E0,1.30507E4,7.283534E-2,-6.8555075E-1,-2.0877275E0,-1.1830466E0,5.703315E-1,-8.7258196E-1,2.078612E0,1.2281688E0],"split_indices":[21,10,9,7,19,12,7,0,0,0,0,0,0,0,0],"split_type":[0,0,0,0,0,0,0,0,0,0,0,0,0,0,0],"sum_hessian":[1.23E2,6.9E1,5.4E1,5.4E1,1.5E1,4.4E1,1E1,3.1E1,2.3E1,4E0,1.1E1,4.1E1,3E0,3E0,7E0],"tree_param":{"num_deleted":"0","num_feature":"22","num_nodes":"15","size_leaf_vector":"1"}},{"base_weights":[9.357682E-1,-2.4053135E1,3.3076054E1,-5.320173E1,-8.396233E0,1.4269986E1,5.4306396E1,-1.3320324E0,-7.5717044E-1,8.3242565E-2,-6.5649563E-1,1.3554848E0,9.2517555E-2,8.413632E-1,1.5647588E0],"categories":[],"categories_nodes":[],"categories_segments":[],"categories_sizes":[],"default_left":[0,0,0,0,0,0,0,0,0,0,0,0,0,0,0],"id":78,"left_children":[1,3,5,7,9,11,13,-1,-1,-1,-1,-1,-1,-1,-1],"loss_changes":[8.9961336E4,2.871546E4,1.9522562E4,4.3774453E3,1.2451867E4,1.3301461E4,6.6641797E3,0E0,0E0,0E0,0E0,0E0,0E0,0E0,0E0],"parents":[2147483647,0,0,1,1,2,2,3,3,4,4,5,5,6,6],"right_children":[2,4,6,8,10,12,14,-1,-1,-1,-1,-1,-1,-1,-1],"split_conditions":[4E0,5.070442E2,7.542467E2,4.114009E2,1.1044E4,-8.92E-1,8.695661E2,-1.3320324E0,-7.5717044E-1,8.3242565E-2,-6.5649563E-1,1.3554848E0,9.2517555E-2,8.413632E-1,1.5647588E0],"split_indices":[21,0,0,0,6,17,3,0,0,0,0,0,0,0,0],"split_type":[0,0,0,0,0,0,0,0,0,0,0,0,0,0,0],"sum_hessian":[1.12E2,6.3E1,4.9E1,2.2E1,4.1E1,2.6E1,2.3E1,1.2E1,1E1,2.7E1,1.4E1,4E0,2.2E1,1.5E1,8E0],"tree_param":{"num_deleted":"0","num_feature":"22","num_nodes":"15","size_leaf_vector":"1"}},{"base_weights":[-3.2003038E0,-2.8586426E1,3.1355246E1,-6.463349E1,-1.4466062E1,1.2426892E1,5.47589E1,-1.7383778E0,-1.0819298E0,-3.862116E-1,1.788819E0,9.886377E-3,6.3356614E-1,6.733718E-1,1.5735906E0],"categories":[],"categories_nodes":[],"categories_segments":[],"categories_sizes":[],"default_left":[0,0,0,0,0,0,0,0,0,0,0,0,0,0,0],"id":79,"left_children":[1,3,5,7,9,11,13,-1,-1,-1,-1,-1,-1,-1,-1],"loss_changes":[9.7374586E4,3.252841E4,2.0780605E4,4.1672188E3,2.2354812E4,5.888735E3,1.0399141E4,0E0,0E0,0E0,0E0,0E0,0E0,0E0,0E0],"parents":[2147483647,0,0,1,1,2,2,3,3,4,4,5,5,6,6],"right_children":[2,4,6,8,10,12,14,-1,-1,-1,-1,-1,-1,-1,-1],"split_conditions":[6.279673E2,3.926985E2,1.2E-1,-7.8E-1,1.758E1,7.542467E2,7.276746E2,-1.7383778E0,-1.0819298E0,-3.862116E-1,1.788819E0,9.886377E-3,6.3356614E-1,6.733718E-1,1.5735906E0],"split_indices":[0,0,5,5,5,0,2,0,0,0,0,0,0,0,0],"split_type":[0,0,0,0,0,0,0,0,0,0,0,0,0,0,0],"sum_hessian":[1.11E2,6.4E1,4.7E1,1.8E1,4.6E1,2.6E1,2.1E1,6E0,1.2E1,4.4E1,2E0,1.6E1,1E1,1.1E1,1E1],"tree_param":{"num_deleted":"0","num_feature":"22","num_nodes":"15","size_leaf_vector":"1"}},{"base_weights":[-7.8142434E-1,-3.687896E1,1.8530579E1,-6.008236E1,-1.9973076E1,2.3568435E0,4.64986E1,-1.3071121E0,-7.842325E-1,-6.2635356E-1,6.032663E-1,1.4875965E-1,-2.122506E0,7.302537E-1,1.6210082E0],"categories":[],"categories_nodes":[],"categories_segments":[],"categories_sizes":[],"default_left":[0,0,0,0,0,0,0,0,0,0,0,0,0,0,0],"id":80,"left_children":[1,3,5,7,9,11,13,-1,-1,-1,-1,-1,-1,-1,-1],"loss_changes":[7.5999164E4,1.4857641E4,3.208856E4,1.5663281E3,1.222993E4,2.4336773E4,8.973742E3,0E0,0E0,0E0,0E0,0E0,0E0,0E0,0E0],"parents":[2147483647,0,0,1,1,2,2,3,3,4,4,5,5,6,6],"right_children":[2,4,6,8,10,12,14,-1,-1,-1,-1,-1,-1,-1,-1],"split_conditions":[5.573617E2,3.926985E2,8.4E-1,-1.49E-1,8.19E0,1.70658E4,8.325926E2,-1.3071121E0,-7.842325E-1,-6.2635356E-1,6.032663E-1,1.4875965E-1,-2.122506E0,7.302537E-1,1.6210082E0],"split_indices":[0,0,5,16,5,6,1,0,0,0,0,0,0,0,0],"split_type":[0,0,0,0,0,0,0,0,0,0,0,0,0,0,0],"sum_hessian":[1.09E2,3.8E1,7.1E1,1.6E1,2.2E1,4.5E1,2.6E1,1.3E1,3E0,1.8E1,4E0,4.3E1,2E0,2E1,6E0],"tree_param":{"num_deleted":"0","num_feature":"22","num_nodes":"15","size_leaf_vector":"1"}},{"base_weights":[2.7697659E0,-1.3694928E1,4.9343166E1,-4.9965214E1,4.3555892E-1,3.5587654E1,6.621968E1,-1.3794308E0,-7.6523495E-1,8.7545335E-2,-2.2282221E0,8.4398896E-1,-1.6870847E-1,1.2257504E0,1.9184872E0],"categories":[],"categories_nodes":[],"categories_segments":[],"categories_sizes":[],"default_left":[0,0,0,0,0,0,0,0,0,0,0,0,0,0,0],"id":81,"left_children":[1,3,5,7,9,11,13,-1,-1,-1,-1,-1,-1,-1,-1],"loss_changes":[8.514054E4,4.205662E4,6.668008E3,5.0332188E3,2.5576877E4,4.468996E3,1.9176289E3,0E0,0E0,0E0,0E0,0E0,0E0,0E0,0E0],"parents":[2147483647,0,0,1,1,2,2,3,3,4,4,5,5,6,6],"right_children":[2,4,6,8,10,12,14,-1,-1,-1,-1,-1,-1,-1,-1],"split_conditions":[6.962905E2,4.942467E2,8.325926E2,3.494688E2,1.265E1,-1.49E-1,2.653E1,-1.3794308E0,-7.6523495E-1,8.7545335E-2,-2.2282221E0,8.4398896E-1,-1.6870847E-1,1.2257504E0,1.9184872E0],"split_indices":[0,0,1,0,10,16,9,0,0,0,0,0,0,0,0],"split_type":[0,0,0,0,0,0,0,0,0,0,0,0,0,0,0],"sum_hessian":[1.11E2,8.2E1,2.9E1,2.3E1,5.9E1,1.6E1,1.3E1,9E0,1.4E1,5.7E1,2E0,1.4E1,2E0,1.1E1,2E0],"tree_param":{"num_deleted":"0","num_feature":"22","num_nodes":"15","size_leaf_vector":"1"}},{"base_weights":[-2.370342E0,-5.3753048E1,1.1326053E1,-7.6499916E1,-4.0057323E1,-5.8682723E0,3.486971E1,-1.3122523E0,-1.9919786E0,-1.0703532E0,-5.74245E-1,-3.932108E-2,-2.0815668E0,3.2508707E-1,1.1204674E0],"categories":[],"categories_nodes":[],"categories_segments":[],"categories_sizes":[],"default_left":[0,0,0,0,0,0,0,0,0,0,0,0,0,0,0],"id":82,"left_children":[1,3,5,7,9,11,13,-1,-1,-1,-1,-1,-1,-1,-1],"loss_changes":[8.0256E4,7.4026875E3,3.645185E4,2.1781836E3,2.2160781E3,1.979036E4,1.4737125E4,0E0,0E0,0E0,0E0,0E0,0E0,0E0,0E0],"parents":[2147483647,0,0,1,1,2,2,3,3,4,4,5,5,6,6],"right_children":[2,4,6,8,10,12,14,-1,-1,-1,-1,-1,-1,-1,-1],"split_conditions":[4.942467E2,-7.8E-1,8.4E-1,4.429514E2,3.571945E2,1.70658E4,6.686988E2,-1.3122523E0,-1.9919786E0,-1.0703532E0,-5.74245E-1,-3.932108E-2,-2.0815668E0,3.2508707E-1,1.1204674E0],"split_indices":[0,5,5,2,1,6,0,0,0,0,0,0,0,0,0],"split_type":[0,0,0,0,0,0,0,0,0,0,0,0,0,0,0],"sum_hessian":[1.14E2,2.4E1,9E1,9E0,1.5E1,5.2E1,3.8E1,6E0,3E0,7E0,8E0,5E1,2E0,2E1,1.8E1],"tree_param":{"num_deleted":"0","num_feature":"22","num_nodes":"15","size_leaf_vector":"1"}},{"base_weights":[3.0616293E0,-2.06551E1,3.7891743E1,-3.570806E1,2.7397032E0,1.7516607E1,5.9123783E1,7.705971E-2,-9.365599E-1,-5.730177E-1,3.203288E-1,1.2018699E-1,7.389115E-1,9.234142E-1,1.4808187E0],"categories":[],"categories_nodes":[],"categories_segments":[],"categories_sizes":[],"default_left":[0,0,0,0,0,0,0,0,0,0,0,0,0,0,0],"id":83,"left_children":[1,3,5,7,9,11,13,-1,-1,-1,-1,-1,-1,-1,-1],"loss_changes":[9.58359E4,2.431943E4,2.0286117E4,1.795866E4,1.1084444E4,5.2897744E3,4.321258E3,0E0,0E0,0E0,0E0,0E0,0E0,0E0,0E0],"parents":[2147483647,0,0,1,1,2,2,3,3,4,4,5,5,6,6],"right_children":[2,4,6,8,10,12,14,-1,-1,-1,-1,-1,-1,-1,-1],"split_conditions":[4E0,1.3E1,5.8E-1,9.67E0,5.142895E2,7.595052E2,-1.68E-1,7.705971E-2,-9.365599E-1,-5.730177E-1,3.203288E-1,1.2018699E-1,7.389115E-1,9.234142E-1,1.4808187E0],"split_indices":[21,19,5,10,2,3,18,0,0,0,0,0,0,0,0],"split_type":[0,0,0,0,0,0,0,0,0,0,0,0,0,0,0],"sum_hessian":[1.16E2,6.9E1,4.7E1,4.2E1,2.7E1,2.4E1,2.3E1,9E0,3.3E1,8E0,1.9E1,1.5E1,9E0,1.2E1,1.1E1],"tree_param":{"num_deleted":"0","num_feature":"22","num_nodes":"15","size_leaf_vector":"1"}},{"base_weights":[-2.1349068E0,-2.5925346E1,2.4516611E1,2.085167E1,-3.3454075E1,6.0352798E0,4.059283E1,-1.0554626E-1,2.2631905E0,-9.5150673E-1,-2.1004999E-1,-6.7722052E-3,8.6191565E-1,5.4178715E-1,1.1512073E0],"categories":[],"categories_nodes":[],"categories_segments":[],"categories_sizes":[],"default_left":[0,0,0,0,0,0,0,0,0,0,0,0,0,0,0],"id":84,"left_children":[1,3,5,7,9,11,13,-1,-1,-1,-1,-1,-1,-1,-1],"loss_changes":[7.7991664E4,2.2900652E4,1.7205004E4,2.1564482E4,1.7752797E4,6.3504116E3,6.980996E3,0E0,0E0,0E0,0E0,0E0,0E0,0E0,0E0],"parents":[2147483647,0,0,1,1,2,2,3,3,4,4,5,5,6,6],"right_children":[2,4,6,8,10,12,14,-1,-1,-1,-1,-1,-1,-1,-1],"split_conditions":[6.279673E2,1.204E1,-2.7E-1,9.68E0,1.2E1,8.853957E2,7.54652E2,-1.0554626E-1,2.2631905E0,-9.5150673E-1,-2.1004999E-1,-6.7722052E-3,8.6191565E-1,5.4178715E-1,1.1512073E0],"split_indices":[0,10,5,10,20,0,0,0,0,0,0,0,0,0,0],"split_type":[0,0,0,0,0,0,0,0,0,0,0,0,0,0,0],"sum_hessian":[1.23E2,6.5E1,5.8E1,9E0,5.6E1,2.7E1,3.1E1,7E0,2E0,3.5E1,2.1E1,2.3E1,4E0,1.7E1,1.4E1],"tree_param":{"num_deleted":"0","num_feature":"22","num_nodes":"15","size_leaf_vector":"1"}},{"base_weights":[-4.315177E-1,-2.4477102E1,3.0396475E1,-1.0452615E1,-5.6384357E1,1.00774E1,5.068731E1,-3.354237E-1,2.2176604E0,-1.9756793E0,-8.1112486E-1,9.7177553E-1,1.290633E-1,6.7681754E-1,1.3348266E0],"categories":[],"categories_nodes":[],"categories_segments":[],"categories_sizes":[],"default_left":[0,0,0,0,0,0,0,0,0,0,0,0,0,0,0],"id":85,"left_children":[1,3,5,7,9,11,13,-1,-1,-1,-1,-1,-1,-1,-1],"loss_changes":[7.7833555E4,2.6361832E4,1.8929395E4,3.0619838E4,1.20076875E4,3.1887222E3,6.0638164E3,0E0,0E0,0E0,0E0,0E0,0E0,0E0,0E0],"parents":[2147483647,0,0,1,1,2,2,3,3,4,4,5,5,6,6],"right_children":[2,4,6,8,10,12,14,-1,-1,-1,-1,-1,-1,-1,-1],"split_conditions":[6.279673E2,3.88E0,2.7E-1,1.54E-1,4E0,6.475E2,7.54652E2,-3.354237E-1,2.2176604E0,-1.9756793E0,-8.1112486E-1,9.7177553E-1,1.290633E-1,6.7681754E-1,1.3348266E0],"split_indices":[0,12,5,18,19,6,0,0,0,0,0,0,0,0,0],"split_type":[0,0,0,0,0,0,0,0,0,0,0,0,0,0,0],"sum_hessian":[1.05E2,5.9E1,4.6E1,4.1E1,1.8E1,2.3E1,2.3E1,3.9E1,2E0,5E0,1.3E1,2E0,2.1E1,1.1E1,1.2E1],"tree_param":{"num_deleted":"0","num_feature":"22","num_nodes":"15","size_leaf_vector":"1"}},{"base_weights":[-3.3622375E0,-1.9109417E1,4.041466E1,1.1223104E1,-3.3779842E1,2.6759663E1,6.3115704E1,1.7179723E0,1.1493431E-1,-1.6346678E0,-4.413404E-1,1.1024044E-1,8.235844E-1,1.7780073E0,9.06769E-1],"categories":[],"categories_nodes":[],"categories_segments":[],"categories_sizes":[],"default_left":[0,0,0,0,0,0,0,0,0,0,0,0,0,0,0],"id":86,"left_children":[1,3,5,7,9,11,13,-1,-1,-1,-1,-1,-1,-1,-1],"loss_changes":[8.340324E4,3.9619117E4,9.863758E3,1.1796972E4,3.367346E4,5.991427E3,5.3789883E3,0E0,0E0,0E0,0E0,0E0,0E0,0E0,0E0],"parents":[2147483647,0,0,1,1,2,2,3,3,4,4,5,5,6,6],"right_children":[2,4,6,8,10,12,14,-1,-1,-1,-1,-1,-1,-1,-1],"split_conditions":[5E0,2.34E1,2.944E1,5.446695E2,4E0,7E0,1.5269E4,1.7179723E0,1.1493431E-1,-1.6346678E0,-4.413404E-1,1.1024044E-1,8.235844E-1,1.7780073E0,9.06769E-1],"split_indices":[21,9,13,4,19,19,7,0,0,0,0,0,0,0,0],